{"learner":{"attributes":{"best_iteration":"449","best_ntree_limit":"450","scikit_learn":"{\"n_estimators\": 450, \"objective\": \"reg:squarederror\", \"max_depth\": 5, \"max_leaves\": null, \"max_bin\": null, \"grow_policy\": null, \"learning_rate\": 0.01, \"verbosity\": null, \"booster\": null, \"tree_method\": null, \"gamma\": 0, \"min_child_weight\": 1, \"max_delta_step\": null, \"subsample\": 0.8, \"sampling_method\": null, \"colsample_bytree\": 0.8, \"colsample_bylevel\": null, \"colsample_bynode\": null, \"reg_alpha\": 0, \"reg_lambda\": 1, \"scale_pos_weight\": null, \"base_score\": null, \"missing\": NaN, \"num_parallel_tree\": null, \"random_state\": null, \"n_jobs\": null, \"monotone_constraints\": null, \"interaction_constraints\": null, \"importance_type\": null, \"gpu_id\": null, \"validate_parameters\": null, \"predictor\": null, \"enable_categorical\": false, \"feature_types\": null, \"max_cat_to_onehot\": null, \"max_cat_threshold\": null, \"eval_metric\": null, \"early_stopping_rounds\": null, \"callbacks\": null, \"kwargs\": {\"seed\": 0}, \"_estimator_type\": \"regressor\"}"},"feature_names":[],"feature_types":[],"gradient_booster":{"model":{"gbtree_model_param":{"num_parallel_tree":"1","num_trees":"450","size_leaf_vector":"0"},"tree_info":[0,0,0,0,0,0,0,0,0,0,0,0,0,0,0,0,0,0,0,0,0,0,0,0,0,0,0,0,0,0,0,0,0,0,0,0,0,0,0,0,0,0,0,0,0,0,0,0,0,0,0,0,0,0,0,0,0,0,0,0,0,0,0,0,0,0,0,0,0,0,0,0,0,0,0,0,0,0,0,0,0,0,0,0,0,0,0,0,0,0,0,0,0,0,0,0,0,0,0,0,0,0,0,0,0,0,0,0,0,0,0,0,0,0,0,0,0,0,0,0,0,0,0,0,0,0,0,0,0,0,0,0,0,0,0,0,0,0,0,0,0,0,0,0,0,0,0,0,0,0,0,0,0,0,0,0,0,0,0,0,0,0,0,0,0,0,0,0,0,0,0,0,0,0,0,0,0,0,0,0,0,0,0,0,0,0,0,0,0,0,0,0,0,0,0,0,0,0,0,0,0,0,0,0,0,0,0,0,0,0,0,0,0,0,0,0,0,0,0,0,0,0,0,0,0,0,0,0,0,0,0,0,0,0,0,0,0,0,0,0,0,0,0,0,0,0,0,0,0,0,0,0,0,0,0,0,0,0,0,0,0,0,0,0,0,0,0,0,0,0,0,0,0,0,0,0,0,0,0,0,0,0,0,0,0,0,0,0,0,0,0,0,0,0,0,0,0,0,0,0,0,0,0,0,0,0,0,0,0,0,0,0,0,0,0,0,0,0,0,0,0,0,0,0,0,0,0,0,0,0,0,0,0,0,0,0,0,0,0,0,0,0,0,0,0,0,0,0,0,0,0,0,0,0,0,0,0,0,0,0,0,0,0,0,0,0,0,0,0,0,0,0,0,0,0,0,0,0,0,0,0,0,0,0,0,0,0,0,0,0,0,0,0,0,0,0,0,0,0,0,0,0,0,0,0,0,0,0,0,0,0,0,0,0,0,0,0,0,0,0,0,0,0,0,0,0,0,0,0,0,0,0,0,0,0,0,0,0,0,0,0,0,0,0,0,0,0,0,0,0],"trees":[{"base_weights":[-1.3263072E0,-1.4824468E0,4.6923077E-1,-2.0962791E0,-1.2008586E0,1.2571429E0,-3.857143E-1,-3.1766667E0,-1.7585714E0,-1.7E-1,-1.3020556E0,3.5000002E-1,1.35E0,-1.1E0,1.2000001E-1,-1.5375E0,-3.74E0,-3.375E0,-1.5015625E0,3.4E-1,-5.6666666E-1,-1.3727976E0,-2.6714286E-1,1.7500001E-1,-4.9999997E-2,-1.6183333E0,1.6666669E-1,5.3333336E-1,3.3333343E-2,-6.4E-1,-9.9999994E-2,-8E-2,-1.4364375E0,-4.3600002E-1,1.0333335E-1,2E-1,5.0000012E-2],"categories":[],"categories_nodes":[],"categories_segments":[],"categories_sizes":[],"default_left":[1,1,1,1,1,1,1,1,1,1,1,0,0,0,1,0,0,0,1,1,1,1,1,1,0,0,0,0,0,0,0,0,0,0,0,0,0],"id":0,"left_children":[1,3,5,7,9,11,13,15,17,19,21,-1,-1,-1,23,-1,-1,-1,25,27,29,31,33,35,-1,-1,-1,-1,-1,-1,-1,-1,-1,-1,-1,-1,-1],"loss_changes":[4.3589874E1,2.1854218E1,9.241979E0,1.0102386E1,1.0106293E1,1.1714268E-1,2.6605716E0,2.5603256E0,9.472511E0,2.2156668E0,6.222336E0,0E0,0E0,0E0,5.55E-2,0E0,0E0,0E0,6.5033417E0,2.7866673E-1,1.4133334E-1,6.796051E0,4.8295626E-1,2.4999827E-3,0E0,0E0,0E0,0E0,0E0,0E0,0E0,0E0,0E0,0E0,0E0,0E0,0E0],"parents":[2147483647,0,0,1,1,2,2,3,3,4,4,5,5,6,6,7,7,8,8,9,9,10,10,14,14,18,18,19,19,20,20,21,21,22,22,23,23],"right_children":[2,4,6,8,10,12,14,16,18,20,22,-1,-1,-1,24,-1,-1,-1,26,28,30,32,34,36,-1,-1,-1,-1,-1,-1,-1,-1,-1,-1,-1,-1,-1],"split_conditions":[2.9165E3,2.655E2,5.5995E3,3.4865E3,4.1495E3,8.1695E3,5.3635E3,5.9455E3,1.9845E3,7.9205E3,1.22E3,3.5E-3,1.35E-2,-1.1E-2,6.4445E3,-1.53749995E-2,-3.74E-2,-3.3749998E-2,5.7005E3,2.8825E3,5.643E3,3.0025E3,4.38E3,5.5535E3,-4.9999997E-4,-1.6183333E-2,1.6666668E-3,5.3333333E-3,3.3333342E-4,-6.4E-3,-9.999999E-4,-8E-4,-1.4364375E-2,-4.36E-3,1.0333335E-3,2E-3,5.000001E-4],"split_indices":[22534,17065,20319,16365,17017,15420,16296,18301,19789,15453,18719,0,0,0,15375,0,0,0,22082,15422,15431,16485,15395,15365,0,0,0,0,0,0,0,0,0,0,0,0,0],"split_type":[0,0,0,0,0,0,0,0,0,0,0,0,0,0,0,0,0,0,0,0,0,0,0,0,0,0,0,0,0,0,0,0,0,0,0,0,0],"sum_hessian":[1.52E2,1.4E2,1.2E1,4.2E1,9.8E1,6E0,6E0,8E0,3.4E1,9E0,8.9E1,1E0,5E0,2E0,4E0,3E0,5E0,3E0,3.1E1,4E0,5E0,8.3E1,6E0,3E0,1E0,2.9E1,2E0,2E0,2E0,4E0,1E0,4E0,7.9E1,4E0,2E0,2E0,1E0],"tree_param":{"num_deleted":"0","num_feature":"30720","num_nodes":"37","size_leaf_vector":"0"}},{"base_weights":[-1.3366282E0,-1.480536E0,4.7766668E-1,-1.2585615E0,-2.267289E0,-7.393E-1,1.1785625E0,-2.079595E-1,-1.3366268E0,-2.5049512E0,-9.624581E-2,-1.4975001E0,2.6533335E-1,1.3043572E0,1.4900002E-1,-6.532871E-1,2.7896002E-1,-5.021388E-1,-1.419182E0,-2.8526628E0,-1.1039666E0,3.491667E-1,-3.6110553E-1,3.4825003E-1,4.975E-2,5.4733336E-1,7.503335E-2,-6.919775E-1,3.073357E-3,-3.9179283E-1,-1.4964539E0,-1.7693299E0,-3.3832269E0,5.080917E-1,-1.457325E0,-4.919083E-1,-4.975E-2],"categories":[],"categories_nodes":[],"categories_segments":[],"categories_sizes":[],"default_left":[1,1,1,1,1,1,1,1,1,1,1,0,1,0,0,0,1,1,1,1,1,0,1,0,0,0,0,0,0,0,0,0,0,0,0,0,0],"id":1,"left_children":[1,3,5,7,9,11,13,15,17,19,21,-1,23,-1,-1,-1,25,27,29,31,33,-1,35,-1,-1,-1,-1,-1,-1,-1,-1,-1,-1,-1,-1,-1,-1],"loss_changes":[4.0654144E1,2.1945251E1,1.1106914E1,8.989792E0,1.5238159E1,4.2059016E0,8.417587E-1,2.1337895E0,6.5209503E0,1.0003494E1,5.9797335E-1,0E0,3.6300927E-2,0E0,0E0,0E0,2.3257416E-1,1.0571239E0,6.955597E0,6.0842896E0,4.727895E0,0E0,9.770608E-2,0E0,0E0,0E0,0E0,0E0,0E0,0E0,0E0,0E0,0E0,0E0,0E0,0E0,0E0],"parents":[2147483647,0,0,1,1,2,2,3,3,4,4,5,5,6,6,7,7,8,8,9,9,10,10,12,12,16,16,17,17,18,18,19,19,20,20,22,22],"right_children":[2,4,6,8,10,12,14,16,18,20,22,-1,24,-1,-1,-1,26,28,30,32,34,-1,36,-1,-1,-1,-1,-1,-1,-1,-1,-1,-1,-1,-1,-1,-1],"split_conditions":[3.4315E3,3.379E3,9.3105E3,3.5315E3,4.1535E3,4.2895E3,5.1265E3,1.7215E3,7.769E3,6.2785E3,7.3565E3,-1.4975E-2,6.8605E3,1.3043571E-2,1.4900002E-3,-6.532871E-3,1.204E3,5.8815E3,3.83E3,3.6905E3,5.4648E4,3.4916669E-3,3.2725E3,3.4825003E-3,4.975E-4,5.4733334E-3,7.503335E-4,-6.9197747E-3,3.073357E-5,-3.9179283E-3,-1.4964539E-2,-1.7693298E-2,-3.3832267E-2,5.080917E-3,-1.4573249E-2,-4.919083E-3,-4.975E-4],"split_indices":[22509,22005,18041,18660,16325,15406,15575,16569,16691,16357,15367,0,15362,0,0,0,15406,15544,19276,20469,20772,0,15369,0,0,0,0,0,0,0,0,0,0,0,0,0,0],"split_type":[0,0,0,0,0,0,0,0,0,0,0,0,0,0,0,0,0,0,0,0,0,0,0,0,0,0,0,0,0,0,0,0,0,0,0,0,0],"sum_hessian":[1.52E2,1.41E2,1.1E1,1.12E2,2.9E1,4E0,7E0,8E0,1.04E2,2.6E1,3E0,2E0,2E0,6E0,1E0,4E0,4E0,1E1,9.4E1,2E1,6E0,1E0,2E0,1E0,1E0,1E0,3E0,7E0,3E0,7E0,8.7E1,8E0,1.2E1,1E0,5E0,1E0,1E0],"tree_param":{"num_deleted":"0","num_feature":"30720","num_nodes":"37","size_leaf_vector":"0"}},{"base_weights":[-1.2795911E0,-1.4239279E0,6.3438576E-1,-1.2239047E0,-2.4705365E0,9.152268E-1,-1.0870125E0,-1.330444E0,-1.8081641E-1,-2.750802E0,-5.917067E-1,1.3387651E0,4.0974048E-1,8.30833E-2,-1.3724213E0,1.4286886E-1,-6.6254956E-1,-7.5594145E-1,-4.9501255E-2,1.7011724E-1,5.92658E-1,2.6424947E-1,-6.538858E-2,-1.2743255E0,-2.15728E0,7.6796454E-3,5.445967E-1,1.9382216E-1,4.950124E-2],"categories":[],"categories_nodes":[],"categories_segments":[],"categories_sizes":[],"default_left":[1,1,1,1,1,1,0,1,1,0,1,0,1,1,1,1,0,0,0,1,0,0,0,0,0,0,0,0,0],"id":2,"left_children":[1,3,5,7,9,11,-1,13,15,-1,17,-1,19,21,23,25,-1,-1,-1,27,-1,-1,-1,-1,-1,-1,-1,-1,-1],"loss_changes":[4.151317E1,2.5656647E1,6.312696E0,1.2761642E1,9.430328E0,1.5923815E0,0E0,6.4036407E0,1.9658169E0,0E0,3.1877565E-1,0E0,1.6216636E-1,1.2487123E-1,5.181061E0,4.302918E-1,0E0,0E0,0E0,1.8423349E-3,0E0,0E0,0E0,0E0,0E0,0E0,0E0,0E0,0E0],"parents":[2147483647,0,0,1,1,2,2,3,3,4,4,5,5,7,7,8,8,10,10,12,12,13,13,14,14,15,15,19,19],"right_children":[2,4,6,8,10,12,-1,14,16,-1,18,-1,20,22,24,26,-1,-1,-1,28,-1,-1,-1,-1,-1,-1,-1,-1,-1],"split_conditions":[3.4315E3,6.5965E3,8.9915E3,6.0965E3,5.3965E3,6.9955E3,-1.0870125E-2,3.9995E3,2.557E3,-2.750802E-2,3.2725E3,1.3387651E-2,7.9315E3,1.342E3,5.419E3,1.375E3,-6.6254954E-3,-7.5594145E-3,-4.9501256E-4,5.5535E3,5.9265797E-3,2.6424946E-3,-6.538858E-4,-1.2743254E-2,-2.1572798E-2,7.679645E-5,5.4459665E-3,1.9382215E-3,4.950124E-4],"split_indices":[22509,22022,15813,17344,18947,16903,0,16323,16089,0,15369,0,15887,15395,20087,15395,0,0,0,15365,0,0,0,0,0,0,0,0,0],"split_type":[0,0,0,0,0,0,0,0,0,0,0,0,0,0,0,0,0,0,0,0,0,0,0,0,0,0,0,0,0],"sum_hessian":[1.46E2,1.36E2,1E1,1.16E2,2E1,9E0,1E0,1.05E2,1.1E1,1.7E1,3E0,4E0,5E0,3E0,1.02E2,7E0,4E0,2E0,1E0,3E0,2E0,1E0,2E0,9.3E1,9E0,6E0,1E0,2E0,1E0],"tree_param":{"num_deleted":"0","num_feature":"30720","num_nodes":"29","size_leaf_vector":"0"}},{"base_weights":[-1.334588E0,3.6853E-1,-1.5100386E0,1.2300293E0,-3.4247282E-1,-1.257187E0,-2.34223E0,1.3179674E0,3.5120058E-1,4.0703636E-1,-1.3811184E0,-2.5154257E0,-1.1031277E0,-2.5740013E0,-9.475172E-1,1.6902438E-1,5.887069E-1,-3.4320743E0,-1.50133E0,-1.186222E0,-2.0039111E-2,-1.5906445E0,-3.1890864E0,-2.6208677E0,-8.867356E-2,1.9253002E-1,4.9253732E-2,-1.9521031E-1,-1.241569E0,3.4160274E-1,-4.6708164E-1,-3.8525113E-1,-1.793198E0,-1.0208677E0,3.995919E-1],"categories":[],"categories_nodes":[],"categories_segments":[],"categories_sizes":[],"default_left":[1,1,1,1,1,1,1,0,0,1,0,1,1,1,1,1,0,0,0,1,1,1,0,0,1,0,0,0,0,0,0,0,0,0,0],"id":3,"left_children":[1,3,5,7,9,11,13,-1,-1,15,-1,17,19,21,23,25,-1,-1,-1,27,29,31,-1,-1,33,-1,-1,-1,-1,-1,-1,-1,-1,-1,-1],"loss_changes":[4.5976044E1,9.6091795E0,2.6093475E1,7.810688E-2,7.5684357E0,1.8160233E1,7.58197E0,0E0,0E0,1.5993279E-1,0E0,5.0725937E0,8.796097E0,1.0653351E1,8.390476E0,1.7783269E-3,0E0,0E0,0E0,4.748932E0,1.4529105E0,2.23905E0,0E0,0E0,2.6837215E0,0E0,0E0,0E0,0E0,0E0,0E0,0E0,0E0,0E0,0E0],"parents":[2147483647,0,0,1,1,2,2,3,3,4,4,5,5,6,6,9,9,11,11,12,12,13,13,14,14,15,15,19,19,20,20,21,21,24,24],"right_children":[2,4,6,8,10,12,14,-1,-1,16,-1,18,20,22,24,26,-1,-1,-1,28,30,32,-1,-1,34,-1,-1,-1,-1,-1,-1,-1,-1,-1,-1],"split_conditions":[2.9335E3,7.1235E3,5.8935E3,6.394E3,3.4435E3,5.199E3,6.2785E3,1.3179674E-2,3.5120058E-3,7.9315E3,-1.3811184E-2,5.369E3,3.735E2,4.7615E3,5.4648E4,3.274E3,5.887069E-3,-3.4320742E-2,-1.50133E-2,5.6595E3,4.877E3,2.2195E3,-3.1890865E-2,-2.6208676E-2,5.4648E4,1.9253002E-3,4.9253734E-4,-1.952103E-3,-1.241569E-2,3.4160274E-3,-4.6708165E-3,-3.8525113E-3,-1.793198E-2,-1.0208677E-2,3.9959187E-3],"split_indices":[16200,19725,17560,15372,16214,16129,16357,0,0,15887,0,15439,21055,16595,20766,15369,0,0,0,17922,15417,15436,0,0,20763,0,0,0,0,0,0,0,0,0,0],"split_type":[0,0,0,0,0,0,0,0,0,0,0,0,0,0,0,0,0,0,0,0,0,0,0,0,0,0,0,0,0,0,0,0,0,0,0],"sum_hessian":[1.51E2,1.4E1,1.37E2,6E0,8E0,1.07E2,3E1,5E0,1E0,5E0,3E0,1E1,9.7E1,2.5E1,5E0,3E0,2E0,4E0,6E0,9E1,7E0,1.1E1,1.4E1,1E0,4E0,2E0,1E0,5E0,8.5E1,4E0,3E0,2E0,9E0,1E0,3E0],"tree_param":{"num_deleted":"0","num_feature":"30720","num_nodes":"35","size_leaf_vector":"0"}},{"base_weights":[-1.3024368E0,-1.4417206E0,9.4701153E-1,-1.2357911E0,-2.0993595E0,1.1356235E0,1.912465E-1,-2.9854672E0,-1.1009558E0,-2.5824175E0,-9.863071E-1,3.4060192E-1,1.2113601E0,-3.324529E0,-4.7554776E-1,-1.2506279E0,-5.4550475E-1,-1.815195E0,-3.4036922E0,-1.2717515E0,1.9879524E-1,-1.3047006E0,7.5892374E-2,1.9401534E-1,-8.179245E-1,5.173073E-1,-1.5600473E0,3.4944457E-1,-5.1251695E-2],"categories":[],"categories_nodes":[],"categories_segments":[],"categories_sizes":[],"default_left":[1,1,1,1,1,1,0,1,1,1,1,0,0,0,0,1,1,0,0,1,1,0,0,0,0,0,0,0,0],"id":4,"left_children":[1,3,5,7,9,11,-1,13,15,17,19,-1,-1,-1,-1,21,23,-1,-1,25,27,-1,-1,-1,-1,-1,-1,-1,-1],"loss_changes":[4.648221E1,1.582373E1,1.065733E0,2.1720428E1,1.41206665E1,8.89492E-3,0E0,4.376156E0,7.631325E0,7.0537567E0,3.9739075E0,0E0,0E0,0E0,0E0,5.6938477E0,4.7922673E0,0E0,0E0,5.449026E0,1.3091785E-1,0E0,0E0,0E0,0E0,0E0,0E0,0E0,0E0],"parents":[2147483647,0,0,1,1,2,2,3,3,4,4,5,5,7,7,8,8,9,9,10,10,15,15,16,16,19,19,20,20],"right_children":[2,4,6,8,10,12,-1,14,16,18,20,-1,-1,-1,-1,22,24,-1,-1,26,28,-1,-1,-1,-1,-1,-1,-1,-1],"split_conditions":[3.4315E3,6.5095E3,5.8615E3,5.1835E3,8.9045E3,6.8605E3,1.9124649E-3,6.245E3,4.0765E3,3.8815E3,4.1535E3,3.4060192E-3,1.2113601E-2,-3.3245288E-2,-4.7554774E-3,6.35E3,7.0615E3,-1.815195E-2,-3.4036923E-2,5.4648E4,7.3565E3,-1.3047006E-2,7.589237E-4,1.9401533E-3,-8.179245E-3,5.1730727E-3,-1.5600473E-2,3.4944457E-3,-5.1251694E-4],"split_indices":[22509,22030,16497,16129,19279,15362,0,15365,16599,15587,16325,0,0,0,0,20111,20226,0,0,20772,15367,0,0,0,0,0,0,0,0],"split_type":[0,0,0,0,0,0,0,0,0,0,0,0,0,0,0,0,0,0,0,0,0,0,0,0,0,0,0,0,0],"sum_hessian":[1.43E2,1.35E2,8E0,1.05E2,3E1,6E0,2E0,6E0,9.9E1,2E1,1E1,1E0,5E0,5E0,1E0,7.7E1,2.2E1,1.2E1,8E0,8E0,2E0,7.4E1,3E0,6E0,1.6E1,1E0,7E0,1E0,1E0],"tree_param":{"num_deleted":"0","num_feature":"30720","num_nodes":"29","size_leaf_vector":"0"}},{"base_weights":[-1.3758923E0,-1.4771825E0,9.043482E-1,-1.1826353E0,-2.3606973E0,1.2169395E-1,1.1930711E0,-1.275327E0,-3.193756E-1,-2.5217519E0,1.9780128E-1,-6.853808E-1,-1.3565353E0,-6.215301E-1,-1.4760941E-2,1.0094261E-1,-2.6068654E0,3.4769735E-1,-5.0995424E-2,-1.04281336E-1,-7.735406E-1,-1.2588063E-1,-1.384338E0,4.9054116E-2,-1.16199054E-1,-1.8029246E0,-2.942124E0],"categories":[],"categories_nodes":[],"categories_segments":[],"categories_sizes":[],"default_left":[1,1,1,1,1,0,0,1,1,1,1,1,1,0,1,0,1,0,0,0,0,0,0,0,0,0,0],"id":5,"left_children":[1,3,5,7,9,-1,-1,11,13,15,17,19,21,-1,23,-1,25,-1,-1,-1,-1,-1,-1,-1,-1,-1,-1],"loss_changes":[3.5980804E1,3.468225E1,1.4366021E0,8.394577E0,1.4920837E1,0E0,0E0,3.813202E0,1.0953138E0,7.6296387E0,1.2961194E-1,6.36549E-1,2.76828E0,0E0,5.1012997E-2,0E0,3.320465E0,0E0,0E0,0E0,0E0,0E0,0E0,0E0,0E0,0E0,0E0],"parents":[2147483647,0,0,1,1,2,2,3,3,4,4,7,7,8,8,9,9,10,10,11,11,12,12,14,14,16,16],"right_children":[2,4,6,8,10,-1,-1,12,14,16,18,20,22,-1,24,-1,26,-1,-1,-1,-1,-1,-1,-1,-1,-1,-1],"split_conditions":[3.4315E3,5.8935E3,8.195E2,5.6675E3,4.1535E3,1.2169394E-3,1.1930711E-2,3.916E3,4.3235E3,4.7145E3,7.3565E3,9.1215E3,2.435E3,-6.215301E-3,7.9635E3,1.0094261E-3,3.6955E3,3.4769734E-3,-5.0995423E-4,-1.0428133E-3,-7.735406E-3,-1.2588062E-3,-1.384338E-2,4.9054116E-4,-1.1619905E-3,-1.8029246E-2,-2.9421238E-2],"split_indices":[22509,17560,16975,21573,16325,0,0,18452,16361,15417,15367,15546,16879,0,15491,0,16211,0,0,0,0,0,0,0,0,0,0],"split_type":[0,0,0,0,0,0,0,0,0,0,0,0,0,0,0,0,0,0,0,0,0,0,0,0,0,0,0],"sum_hessian":[1.49E2,1.43E2,6E0,1.09E2,3.4E1,2E0,4E0,9.8E1,1.1E1,3.2E1,2E0,1.3E1,8.5E1,5E0,6E0,1E0,3.1E1,1E0,1E0,2E0,1.1E1,2E0,8.3E1,4E0,2E0,1.1E1,2E1],"tree_param":{"num_deleted":"0","num_feature":"30720","num_nodes":"27","size_leaf_vector":"0"}},{"base_weights":[-1.4077568E0,-1.502944E0,1.0320387E0,-2.0156279E0,-1.2601775E0,1.2215096E0,4.2342216E-2,-2.3630366E0,-6.3287556E-1,-1.4074078E0,-3.614915E-1,-9.592045E-1,-2.6296005E0,5.3696936E-1,-1.5022671E0,-9.61396E-1,-1.6291289E0,-9.680643E-1,1.5045309E-1,-9.293799E-2,-1.0880926E0,-3.0105615E0,-1.767155E0,1.3898176E-1,6.017208E-1,-1.775167E0,-6.3764495E-1,-5.232806E-1,-1.2656442E0,-1.9278733E0,-1.2054706E0,-4.5411056E-1,-1.240002E0,5.4718846E-1,-4.106966E-2],"categories":[],"categories_nodes":[],"categories_segments":[],"categories_sizes":[],"default_left":[1,1,1,1,1,0,0,1,1,1,1,1,1,1,1,1,1,1,1,0,0,0,0,0,0,0,0,0,0,0,0,0,0,0,0],"id":6,"left_children":[1,3,5,7,9,-1,-1,11,13,15,17,19,21,23,25,27,29,31,33,-1,-1,-1,-1,-1,-1,-1,-1,-1,-1,-1,-1,-1,-1,-1,-1],"loss_changes":[3.4993256E1,1.4760223E1,1.0733905E0,1.9160843E1,1.2325668E1,0E0,0E0,1.0200836E1,1.0977205E1,6.6416626E0,4.803623E0,6.804347E-1,3.879486E0,4.5223117E-2,2.838049E-1,3.3365898E0,4.5105286E0,4.15246E-1,7.0632756E-1,0E0,0E0,0E0,0E0,0E0,0E0,0E0,0E0,0E0,0E0,0E0,0E0,0E0,0E0,0E0,0E0],"parents":[2147483647,0,0,1,1,2,2,3,3,4,4,7,7,8,8,9,9,10,10,11,11,12,12,13,13,14,14,15,15,16,16,17,17,18,18],"right_children":[2,4,6,8,10,-1,-1,12,14,16,18,20,22,24,26,28,30,32,34,-1,-1,-1,-1,-1,-1,-1,-1,-1,-1,-1,-1,-1,-1,-1,-1],"split_conditions":[4.8695E3,6.543E3,3.2005E3,4.6615E3,7.9935E3,1.2215096E-2,4.2342214E-4,4.5045E3,3.4435E3,7.129E3,8.7675E3,1.2535E3,1.3595E3,5.1835E3,3.9075E3,4.283E3,6.8725E3,8.0275E3,2.8825E3,-9.293799E-4,-1.0880926E-2,-3.0105613E-2,-1.767155E-2,1.3898176E-3,6.017208E-3,-1.775167E-2,-6.3764495E-3,-5.2328063E-3,-1.2656442E-2,-1.9278731E-2,-1.2054705E-2,-4.5411056E-3,-1.240002E-2,5.4718843E-3,-4.106966E-4],"split_indices":[20640,16819,15390,19276,15528,0,0,19211,16214,16372,19407,15395,19468,15497,15469,20715,19791,15482,15422,0,0,0,0,0,0,0,0,0,0,0,0,0,0,0,0],"split_type":[0,0,0,0,0,0,0,0,0,0,0,0,0,0,0,0,0,0,0,0,0,0,0,0,0,0,0,0,0,0,0,0,0,0,0],"sum_hessian":[1.43E2,1.38E2,5E0,4.2E1,9.6E1,4E0,1E0,3.3E1,9E0,8.2E1,1.4E1,6E0,2.7E1,4E0,5E0,2.9E1,5.3E1,6E0,8E0,1E0,5E0,1.7E1,1E1,1E0,3E0,3E0,2E0,1.3E1,1.6E1,2.9E1,2.4E1,3E0,3E0,2E0,6E0],"tree_param":{"num_deleted":"0","num_feature":"30720","num_nodes":"35","size_leaf_vector":"0"}},{"base_weights":[-1.2628793E0,-1.415049E0,3.7076184E-1,-1.1467773E0,-2.338642E0,-9.513986E-1,9.947659E-1,-3.811649E-1,-1.3090717E0,-1.5978988E0,-2.7848506E0,3.2992494E-1,-1.3542107E0,1.1755621E0,1.81054E-1,9.352647E-2,-8.212049E-1,-1.1864613E0,-2.3079832E0,-1.7143734E0,-4.1864604E-2,-1.7972714E0,-3.249922E0,1.2455138E0,3.4295025E-1,5.435406E-1,-6.687006E-2,-1.2110968E0,-4.2539576E-1,2.7955025E-3,-1.2305423E0,-1.2484876E0,-2.9058821E0,-1.127629E0,-2.0562072E0],"categories":[],"categories_nodes":[],"categories_segments":[],"categories_sizes":[],"default_left":[1,1,1,1,1,1,1,1,1,1,1,0,0,1,0,1,1,1,1,1,0,0,0,0,0,0,0,0,0,0,0,0,0,0,0],"id":7,"left_children":[1,3,5,7,9,11,13,15,17,19,21,-1,-1,23,-1,25,27,29,31,33,-1,-1,-1,-1,-1,-1,-1,-1,-1,-1,-1,-1,-1,-1,-1],"loss_changes":[3.90562E1,3.2501953E1,1.2496888E1,1.34175415E1,5.796402E0,3.0274515E0,1.2583199E0,4.463352E0,8.529556E0,2.4655647E0,2.4263153E0,0E0,0E0,3.8791656E-2,0E0,8.3033437E-1,1.1823545E0,4.407036E0,2.0732841E0,2.8876114E-1,0E0,0E0,0E0,0E0,0E0,0E0,0E0,0E0,0E0,0E0,0E0,0E0,0E0,0E0,0E0],"parents":[2147483647,0,0,1,1,2,2,3,3,4,4,5,5,6,6,7,7,8,8,9,9,10,10,13,13,15,15,16,16,17,17,18,18,19,19],"right_children":[2,4,6,8,10,12,14,16,18,20,22,-1,-1,24,-1,26,28,30,32,34,-1,-1,-1,-1,-1,-1,-1,-1,-1,-1,-1,-1,-1,-1,-1],"split_conditions":[4.2215E3,6.1245E3,3.0275E3,3.2415E3,7.098E3,7.3305E3,5.8615E3,7.9345E3,4.9025E3,3.336E3,1.35E3,3.2992493E-3,-1.3542107E-2,6.394E3,1.8105399E-3,4.5175E3,3.6455E3,5.268E3,5.3617E4,5.4648E4,-4.1864603E-4,-1.7972713E-2,-3.249922E-2,1.2455137E-2,3.4295025E-3,5.4354058E-3,-6.687006E-4,-1.2110967E-2,-4.2539574E-3,2.7955024E-5,-1.2305423E-2,-1.24848755E-2,-2.905882E-2,-1.127629E-2,-2.0562071E-2],"split_indices":[16220,22025,19905,16238,18892,15393,16497,20959,16636,15395,15395,0,0,15372,0,15428,17523,17767,15366,20772,0,0,0,0,0,0,0,0,0,0,0,0,0,0,0],"split_type":[0,0,0,0,0,0,0,0,0,0,0,0,0,0,0,0,0,0,0,0,0,0,0,0,0,0,0,0,0,0,0,0,0,0,0],"sum_hessian":[1.54E2,1.41E2,1.3E1,1.11E2,3E1,4E0,9E0,2E1,9.1E1,1.3E1,1.7E1,1E0,3E0,7E0,2E0,1E1,1E1,8.3E1,8E0,1.2E1,1E0,7E0,1E1,6E0,1E0,2E0,8E0,4E0,6E0,3E0,8E1,4E0,4E0,6E0,6E0],"tree_param":{"num_deleted":"0","num_feature":"30720","num_nodes":"35","size_leaf_vector":"0"}},{"base_weights":[-1.3203647E0,-1.4245081E0,9.064929E-1,-2.4052587E0,-1.2655246E0,1.2017733E0,1.12194516E-1,-3.3038335E0,-1.6806515E0,-1.9999827E-1,-1.3501168E0,-7.265954E-1,-2.0668552E0,3.761764E-1,-6.4681077E-1,3.552047E-1,-1.4007759E0,-1.1801969E0,5.4390526E-1,3.6876202E-1,-2.467481E0,5.39917E-1,8.704367E-2,-8.1135E-1,-2.118216E-1,-4.3301237E-1,7.622812E-1,-2.004382E0,-1.2138662E0],"categories":[],"categories_nodes":[],"categories_segments":[],"categories_sizes":[],"default_left":[1,1,1,1,1,0,0,0,1,1,1,1,1,1,1,1,1,0,0,0,0,0,0,0,0,0,0,0,0],"id":8,"left_children":[1,3,5,7,9,-1,-1,-1,11,13,15,17,19,21,23,25,27,-1,-1,-1,-1,-1,-1,-1,-1,-1,-1,-1,-1],"loss_changes":[3.445479E1,1.8317535E1,1.5069528E0,6.1674576E0,1.0546204E1,0E0,0E0,0E0,2.919754E0,2.8177354E0,1.0086838E1,3.5234199E0,8.71608E0,1.8971747E-1,2.5757504E-1,1.6135355E0,9.751511E0,0E0,0E0,0E0,0E0,0E0,0E0,0E0,0E0,0E0,0E0,0E0,0E0],"parents":[2147483647,0,0,1,1,2,2,3,3,4,4,8,8,9,9,10,10,11,11,12,12,13,13,14,14,15,15,16,16],"right_children":[2,4,6,8,10,-1,-1,-1,12,14,16,18,20,22,24,26,28,-1,-1,-1,-1,-1,-1,-1,-1,-1,-1,-1,-1],"split_conditions":[4.8695E3,8.817E3,8.6885E3,7.3515E3,3.5165E3,1.20177325E-2,1.1219451E-3,-3.3038333E-2,5.4648E4,3.889E3,2.0665E3,5.19925E4,5.4648E4,2.8825E3,4.452E3,4.2915E3,1.978E3,-1.1801968E-2,5.4390524E-3,3.6876202E-3,-2.4674809E-2,5.39917E-3,8.704367E-4,-8.1135E-3,-2.118216E-3,-4.330124E-3,7.6228115E-3,-2.0043818E-2,-1.2138662E-2],"split_indices":[20640,18633,15783,19792,15574,0,0,0,20772,15465,19491,0,20779,15422,15407,15406,19973,0,0,0,0,0,0,0,0,0,0,0,0],"split_type":[0,0,0,0,0,0,0,0,0,0,0,0,0,0,0,0,0,0,0,0,0,0,0,0,0,0,0,0,0],"sum_hessian":[1.42E2,1.36E2,6E0,1.7E1,1.19E2,4E0,2E0,6E0,1.1E1,9E0,1.1E2,4E0,7E0,4E0,5E0,3E0,1.07E2,3E0,1E0,1E0,6E0,2E0,2E0,3E0,2E0,1E0,2E0,2.3E1,8.4E1],"tree_param":{"num_deleted":"0","num_feature":"30720","num_nodes":"29","size_leaf_vector":"0"}},{"base_weights":[-1.2643667E0,-1.3832791E0,3.748161E-1,-1.1226107E0,-2.3103316E0,8.1457084E-1,-1.0693868E0,-3.3477545E-1,-1.2317425E0,-1.183909E0,-2.6661258E0,9.6752495E-1,1.8615425E-1,3.05182E-2,-6.582222E-1,-1.1372262E0,-2.2979937E0,5.4118574E-1,-1.4671941E0,-3.308082E0,-1.7234349E0,1.797251E-1,-1.6361997E-1,-4.1637236E-1,-9.225145E-1,-1.179781E0,9.392343E-2,3.669182E-1,-1.781627E0],"categories":[],"categories_nodes":[],"categories_segments":[],"categories_sizes":[],"default_left":[1,1,1,1,1,1,0,1,1,1,1,0,0,1,1,1,0,0,1,0,0,0,0,0,0,0,0,0,0],"id":9,"left_children":[1,3,5,7,9,11,-1,13,15,17,19,-1,-1,21,23,25,-1,-1,27,-1,-1,-1,-1,-1,-1,-1,-1,-1,-1],"loss_changes":[2.9951248E1,3.1479523E1,7.857137E0,9.217163E0,8.866791E0,6.8496084E-1,0E0,1.7923832E0,7.262909E0,5.1922665E0,7.612381E0,0E0,0E0,2.6114064E-1,1.2724304E-1,4.930809E0,0E0,0E0,5.267355E0,0E0,0E0,0E0,0E0,0E0,0E0,0E0,0E0,0E0,0E0],"parents":[2147483647,0,0,1,1,2,2,3,3,4,4,5,5,7,7,8,8,9,9,10,10,13,13,14,14,15,15,18,18],"right_children":[2,4,6,8,10,12,-1,14,16,18,20,-1,-1,22,24,26,-1,-1,28,-1,-1,-1,-1,-1,-1,-1,-1,-1,-1],"split_conditions":[4.2215E3,6.1245E3,8.2885E3,2.1335E3,4.9015E3,5.8615E3,-1.0693869E-2,3.0895E3,5.8985E3,5.4648E4,7.3745E3,9.675249E-3,1.8615425E-3,8.7675E3,1.3605E3,6.35E3,-2.2979936E-2,5.4118573E-3,5.4648E4,-3.308082E-2,-1.723435E-2,1.7972509E-3,-1.6361997E-3,-4.1637234E-3,-9.225145E-3,-1.1797809E-2,9.392343E-4,3.669182E-3,-1.781627E-2],"split_indices":[16220,22025,19808,19639,17625,16497,0,17704,16596,20772,16863,0,0,16261,15395,20111,0,0,20779,0,0,0,0,0,0,0,0,0,0],"split_type":[0,0,0,0,0,0,0,0,0,0,0,0,0,0,0,0,0,0,0,0,0,0,0,0,0,0,0,0,0],"sum_hessian":[1.5E2,1.4E2,1E1,1.11E2,2.9E1,8E0,2E0,1.4E1,9.7E1,8E0,2.1E1,6E0,2E0,7E0,7E0,9.1E1,6E0,1E0,7E0,1.1E1,1E1,4E0,3E0,5E0,2E0,8.8E1,3E0,1E0,6E0],"tree_param":{"num_deleted":"0","num_feature":"30720","num_nodes":"29","size_leaf_vector":"0"}},{"base_weights":[-1.2846932E0,-1.3792459E0,8.9794797E-1,-3.3703682E0,-1.3148063E0,1.1884928E0,1.1439067E-1,-1.1179143E0,-1.9016693E0,-2.666796E-1,-1.2281121E0,-3.4636992E-1,-2.1493402E0,2.5506982E-1,-6.898754E-1,-1.2846243E0,-3.0993468E-1,-9.969625E-1,2.2816697E-1,3.357751E-1,-2.246612E0],"categories":[],"categories_nodes":[],"categories_segments":[],"categories_sizes":[],"default_left":[1,1,1,0,1,0,0,1,1,1,1,1,1,0,0,0,0,0,0,0,0],"id":10,"left_children":[1,3,5,-1,7,-1,-1,9,11,13,15,17,19,-1,-1,-1,-1,-1,-1,-1,-1],"loss_changes":[3.3020172E1,1.4558044E1,1.4576569E0,0E0,1.4628647E1,0E0,0E0,1.0084732E1,1.2737625E1,3.2671971E0,4.6868896E0,2.4702106E0,8.006332E0,0E0,0E0,0E0,0E0,0E0,0E0,0E0,0E0],"parents":[2147483647,0,0,1,1,2,2,4,4,7,7,8,8,9,9,10,10,11,11,12,12],"right_children":[2,4,6,-1,8,-1,-1,10,12,14,16,18,20,-1,-1,-1,-1,-1,-1,-1,-1],"split_conditions":[4.8695E3,5.36E2,8.6885E3,-3.370368E-2,6.1245E3,1.1884928E-2,1.1439067E-3,2.1335E3,2.5085E3,5.611E3,1.2225E3,2.9155E3,7.3305E3,2.5506981E-3,-6.8987543E-3,-1.2846243E-2,-3.0993468E-3,-9.969625E-3,2.2816695E-3,3.357751E-3,-2.246612E-2],"split_indices":[20640,16254,15783,0,22025,0,0,19639,20109,17398,18719,16084,15393,0,0,0,0,0,0,0,0],"split_type":[0,0,0,0,0,0,0,0,0,0,0,0,0,0,0,0,0,0,0,0,0],"sum_hessian":[1.53E2,1.47E2,6E0,3E0,1.44E2,4E0,2E0,1.1E2,3.4E1,1.3E1,9.7E1,5E0,2.9E1,6E0,7E0,9.1E1,6E0,2E0,3E0,1E0,2.8E1],"tree_param":{"num_deleted":"0","num_feature":"30720","num_nodes":"21","size_leaf_vector":"0"}},{"base_weights":[-1.2118554E0,-1.3620032E0,3.5473418E-1,-1.1346697E0,-2.2545717E0,1.1667651E0,-4.0013465E-1,-4.2814875E-1,-1.2836075E0,-6.656278E-1,-2.355062E0,1.2507441E0,3.314456E-1,4.155606E-1,-1.31972E0,-4.3173473E-2,-9.3665206E-1,-2.3157353E0,-1.1713647E0,-3.441875E0,-1.9841512E0,1.2363253E-1,5.689685E-1,-2.361682E-1,4.501067E-1,-5.3719294E-1,-1.3016777E0,-2.010976E0,-1.0702332E0,-1.5226927E0,-2.4302413E0],"categories":[],"categories_nodes":[],"categories_segments":[],"categories_sizes":[],"default_left":[1,1,1,1,1,1,1,1,1,0,1,0,0,1,0,1,1,0,1,0,1,0,0,0,0,0,0,0,0,0,0],"id":11,"left_children":[1,3,5,7,9,11,13,15,17,-1,19,-1,-1,21,-1,23,25,-1,27,-1,29,-1,-1,-1,-1,-1,-1,-1,-1,-1,-1],"loss_changes":[3.6001373E1,2.5443481E1,9.048539E0,1.1235916E1,2.7435913E0,7.6491356E-2,6.5492353E0,4.070546E0,7.945526E0,0E0,3.2485504E0,0E0,0E0,1.5357727E-1,0E0,1.343907E0,6.1306334E-1,0E0,5.0652313E0,0E0,6.223831E-1,0E0,0E0,0E0,0E0,0E0,0E0,0E0,0E0,0E0,0E0],"parents":[2147483647,0,0,1,1,2,2,3,3,4,4,5,5,6,6,7,7,8,8,10,10,13,13,15,15,16,16,18,18,20,20],"right_children":[2,4,6,8,10,12,14,16,18,-1,20,-1,-1,22,-1,24,26,-1,28,-1,30,-1,-1,-1,-1,-1,-1,-1,-1,-1,-1],"split_conditions":[4.2215E3,6.5095E3,7.1235E3,2.8485E3,5.0495E3,6.394E3,3.4435E3,3.2425E3,5.199E3,-6.6562775E-3,4.7835E3,1.25074405E-2,3.314456E-3,7.9315E3,-1.31972E-2,7.7085E3,1.1835E3,-2.3157353E-2,4.2155E3,-3.441875E-2,5.4648E4,1.2363252E-3,5.689685E-3,-2.361682E-3,4.501067E-3,-5.371929E-3,-1.3016777E-2,-2.010976E-2,-1.07023325E-2,-1.5226927E-2,-2.4302414E-2],"split_indices":[16220,22030,19725,16896,15812,15372,16214,16238,16129,0,15850,0,0,15887,0,15747,15748,0,17561,0,20772,0,0,0,0,0,0,0,0,0,0],"split_type":[0,0,0,0,0,0,0,0,0,0,0,0,0,0,0,0,0,0,0,0,0,0,0,0,0,0,0,0,0,0,0],"sum_hessian":[1.5E2,1.37E2,1.3E1,1.11E2,2.6E1,6E0,7E0,2E1,9.1E1,2E0,2.4E1,5E0,1E0,4E0,3E0,1.2E1,8E0,7E0,8.4E1,4E0,2E1,2E0,2E0,9E0,3E0,5E0,3E0,7E0,7.7E1,1.2E1,8E0],"tree_param":{"num_deleted":"0","num_feature":"30720","num_nodes":"31","size_leaf_vector":"0"}},{"base_weights":[-1.2107432E0,-1.3481469E0,4.4739345E-1,-1.1080034E0,-2.1257942E0,-9.137677E-1,1.0026436E0,-1.2510809E0,-2.8535727E-1,-2.5232298E0,-6.677628E-1,3.3125138E-1,-1.4391912E0,1.2107072E0,1.8294716E-1,-1.1579803E0,-2.361493E0,-5.242117E-1,3.9273575E-1,-3.1075897E0,-1.6799042E0,5.573263E-1,-9.2239356E-1,-1.2055165E0,1.06007E-1,-5.8389106E-3,-6.1793053E-1,5.315627E-1,1.22996904E-1,3.884679E-1,-1.2056152E0],"categories":[],"categories_nodes":[],"categories_segments":[],"categories_sizes":[],"default_left":[1,1,1,1,1,1,1,1,1,1,1,0,0,0,0,1,0,1,1,0,0,0,1,0,0,0,0,0,0,0,0],"id":12,"left_children":[1,3,5,7,9,11,13,15,17,19,21,-1,-1,-1,-1,23,-1,25,27,-1,-1,-1,29,-1,-1,-1,-1,-1,-1,-1,-1],"loss_changes":[3.4094757E1,2.304219E1,9.985602E0,1.2119431E1,1.6278763E1,3.0933828E0,1.3134451E0,6.569641E0,2.9592905E0,6.606888E0,3.0096374E0,0E0,0E0,0E0,0E0,5.2350388E0,0E0,6.279483E-1,1.21854484E-1,0E0,0E0,0E0,3.067193E0,0E0,0E0,0E0,0E0,0E0,0E0,0E0,0E0],"parents":[2147483647,0,0,1,1,2,2,3,3,4,4,5,5,6,6,7,7,8,8,9,9,10,10,15,15,17,17,18,18,22,22],"right_children":[2,4,6,8,10,12,14,16,18,20,22,-1,-1,-1,-1,24,-1,26,28,-1,-1,-1,30,-1,-1,-1,-1,-1,-1,-1,-1],"split_conditions":[3.4315E3,6.1245E3,5.5115E3,7.9935E3,6.2785E3,7.3565E3,5.8615E3,3.367E3,8.3985E3,3.7445E3,5.4648E4,3.3125137E-3,-1.4391912E-2,1.21070715E-2,1.8294716E-3,6.35E3,-2.361493E-2,1.2205E3,1.2205E3,-3.1075897E-2,-1.6799042E-2,5.573263E-3,5.4648E4,-1.2055164E-2,1.06007E-3,-5.8389105E-5,-6.1793053E-3,5.315627E-3,1.229969E-3,3.884679E-3,-1.2056151E-2],"split_indices":[22509,22025,17014,15528,16357,15367,16587,15989,16407,16179,20772,0,0,0,0,20111,0,15820,15406,0,0,0,20779,0,0,0,0,0,0,0,0],"split_type":[0,0,0,0,0,0,0,0,0,0,0,0,0,0,0,0,0,0,0,0,0,0,0,0,0,0,0,0,0,0,0],"sum_hessian":[1.46E2,1.35E2,1.1E1,1.05E2,3E1,3E0,8E0,8.9E1,1.6E1,2.3E1,7E0,1E0,2E0,6E0,2E0,8.4E1,5E0,1.2E1,4E0,1.2E1,1.1E1,1E0,6E0,8.1E1,3E0,2E0,1E1,2E0,2E0,1E0,5E0],"tree_param":{"num_deleted":"0","num_feature":"30720","num_nodes":"31","size_leaf_vector":"0"}},{"base_weights":[-1.2998315E0,-1.4324526E0,3.557334E-1,-1.1791301E0,-2.321997E0,-1.4295965E0,8.557591E-1,-2.777808E0,-1.0448171E0,-5.2533156E-1,-2.4315684E0,1.2467897E0,3.8727364E-1,-2.991192E0,-6.420598E-1,-2.341236E-2,-1.1071132E0,-5.7213104E-1,-2.4792464E0,1.5301825E-1,5.7052296E-1,5.325985E-1,-2.0484725E-1,-1.5932956E-1,-1.1671933E0,-1.1590571E0,-2.5959759E0,1.8172753E-1,3.344521E-2],"categories":[],"categories_nodes":[],"categories_segments":[],"categories_sizes":[],"default_left":[1,1,1,1,1,0,1,1,1,0,1,0,1,0,0,1,1,0,1,1,0,0,0,0,0,0,0,0,0],"id":13,"left_children":[1,3,5,7,9,-1,11,13,15,-1,17,-1,19,-1,-1,21,23,-1,25,27,-1,-1,-1,-1,-1,-1,-1,-1,-1],"loss_changes":[3.3663544E1,2.8809845E1,1.193592E1,2.0931992E1,4.628525E0,0E0,1.3490734E0,1.7253532E0,6.5915527E0,0E0,1.063858E0,0E0,1.7026252E-1,0E0,0E0,8.152597E-1,5.3944473E0,0E0,1.1519623E0,7.6535046E-3,0E0,0E0,0E0,0E0,0E0,0E0,0E0,0E0,0E0],"parents":[2147483647,0,0,1,1,2,2,3,3,4,4,6,6,7,7,8,8,10,10,12,12,15,15,16,16,18,18,19,19],"right_children":[2,4,6,8,10,-1,12,14,16,-1,18,-1,20,-1,-1,22,24,-1,26,28,-1,-1,-1,-1,-1,-1,-1,-1,-1],"split_conditions":[4.221E3,3.645E3,5.5115E3,3.7745E3,3.6305E3,-1.4295965E-2,6.9845E3,6.1595E3,4.206E3,-5.2533154E-3,6.8605E3,1.2467897E-2,7.5445E3,-2.991192E-2,-6.420598E-3,5.1745E3,3.7875E3,-5.72131E-3,4.9195E3,5.5535E3,5.7052295E-3,5.3259847E-3,-2.0484724E-3,-1.5932956E-3,-1.1671932E-2,-1.1590571E-2,-2.5959758E-2,1.8172752E-3,3.3445208E-4],"split_indices":[16220,21822,17014,18850,15874,0,16356,15365,18433,0,15362,0,15859,0,0,15397,18045,0,21827,15365,0,0,0,0,0,0,0,0,0],"split_type":[0,0,0,0,0,0,0,0,0,0,0,0,0,0,0,0,0,0,0,0,0,0,0,0,0,0,0,0,0],"sum_hessian":[1.5E2,1.39E2,1.1E1,1.1E2,2.9E1,2E0,9E0,7E0,1.03E2,2E0,2.7E1,4E0,5E0,6E0,1E0,6E0,9.7E1,1E0,2.6E1,3E0,2E0,1E0,5E0,6E0,9.1E1,3E0,2.3E1,2E0,1E0],"tree_param":{"num_deleted":"0","num_feature":"30720","num_nodes":"29","size_leaf_vector":"0"}},{"base_weights":[-1.2292659E0,-1.3454353E0,2.86566E-1,-1.9440913E0,-1.1167963E0,-8.96678E-1,7.806115E-1,-2.7665083E0,-1.522195E0,-1.1923717E-1,-1.2286922E0,3.3674312E-1,-1.420066E0,9.5759726E-1,1.0744109E-1,-3.1738331E0,-1.1584007E0,-1.603941E0,3.4247372E-1,3.254013E-1,-4.83322E-1,-2.605248E0,-1.1570442E0,1.4289036E-1,1.0695666E0,1.2788364E-1,3.327799E-2,-2.6760367E-1,-1.7001438E0,5.3010714E-1,9.0521626E-2,-1.428688E-1,-5.909295E-1,-1.1998657E0,1.0640692E-1],"categories":[],"categories_nodes":[],"categories_segments":[],"categories_sizes":[],"default_left":[1,1,1,1,1,1,1,1,1,1,1,0,0,1,1,0,0,1,0,1,1,0,1,0,0,0,0,0,0,0,0,0,0,0,0],"id":14,"left_children":[1,3,5,7,9,11,13,15,17,19,21,-1,-1,23,25,-1,-1,27,-1,29,31,-1,33,-1,-1,-1,-1,-1,-1,-1,-1,-1,-1,-1,-1],"loss_changes":[2.8032196E1,1.7812744E1,7.7148747E0,9.320847E0,1.1908768E1,3.060429E0,9.69388E-1,4.183693E0,4.8173294E0,2.0999072E0,6.552475E0,0E0,0E0,4.857254E-1,2.9253587E-4,0E0,0E0,3.0161438E0,0E0,2.4050128E-1,1.7202163E-1,0E0,5.2133484E0,0E0,0E0,0E0,0E0,0E0,0E0,0E0,0E0,0E0,0E0,0E0,0E0],"parents":[2147483647,0,0,1,1,2,2,3,3,4,4,5,5,6,6,7,7,8,8,9,9,10,10,13,13,14,14,17,17,19,19,20,20,22,22],"right_children":[2,4,6,8,10,12,14,16,18,20,22,-1,-1,24,26,-1,-1,28,-1,30,32,-1,34,-1,-1,-1,-1,-1,-1,-1,-1,-1,-1,-1,-1],"split_conditions":[3.4315E3,6.543E3,5.5115E3,7.8905E3,2.8465E3,7.3565E3,2.1135E3,5.2545E3,5.1225E3,9.5345E3,4.0225E3,3.367431E-3,-1.42006595E-2,4.6265E3,3.274E3,-3.173833E-2,-1.1584006E-2,2.9575E3,3.4247371E-3,2.8825E3,7.2975E3,-2.6052479E-2,6.35E3,1.4289037E-3,1.0695666E-2,1.2788364E-3,3.327799E-4,-2.6760367E-3,-1.7001437E-2,5.3010713E-3,9.0521626E-4,-1.428688E-3,-5.909295E-3,-1.1998657E-2,1.0640692E-3],"split_indices":[22509,16819,17014,21276,16896,15367,16255,15467,15450,16921,15963,0,0,15586,15369,0,0,16230,0,15422,15507,0,20111,0,0,0,0,0,0,0,0,0,0,0,0],"split_type":[0,0,0,0,0,0,0,0,0,0,0,0,0,0,0,0,0,0,0,0,0,0,0,0,0,0,0,0,0,0,0,0,0,0,0],"sum_hessian":[1.56E2,1.45E2,1.1E1,3.8E1,1.07E2,3E0,8E0,1.1E1,2.7E1,1.1E1,9.6E1,1E0,2E0,6E0,2E0,8E0,3E0,2.6E1,1E0,5E0,6E0,3E0,9.3E1,1E0,5E0,1E0,1E0,2E0,2.4E1,2E0,3E0,2E0,4E0,9E1,3E0],"tree_param":{"num_deleted":"0","num_feature":"30720","num_nodes":"35","size_leaf_vector":"0"}},{"base_weights":[-1.2762119E0,1.9670793E-1,-1.3723047E0,6.191448E-1,-9.9535966E-1,-1.9365208E0,-1.143121E0,8.765461E-1,1.4260697E-1,-3.7656114E-1,-2.1548512E0,-7.691626E-2,-1.245475E0,1.7961343E-1,1.5793815E-2,-1.0115759E0,5.956457E-1,-4.0631258E-1,-2.4423127E0,3.4460592E-1,-4.153654E-1,-2.526474E0,-1.1595147E0,-2.329127E-2,-5.920004E-1,-2.7555096E0,-1.4401517E0,5.2657306E-1,4.777016E-2,-1.8776836E0,-1.0448391E0],"categories":[],"categories_nodes":[],"categories_segments":[],"categories_sizes":[],"default_left":[1,1,1,1,0,1,1,0,1,1,1,1,1,0,0,0,0,1,1,1,0,0,1,0,0,0,0,0,0,0,0],"id":15,"left_children":[1,3,5,7,-1,9,11,-1,13,15,17,19,21,-1,-1,-1,-1,23,25,27,-1,-1,29,-1,-1,-1,-1,-1,-1,-1,-1],"loss_changes":[2.1358948E1,5.6520047E0,1.5889587E1,8.562901E-1,0E0,1.2471451E1,1.1035492E1,0E0,1.593484E-2,4.306736E0,1.609732E1,1.5697757E0,7.3112183E0,0E0,0E0,0E0,0E0,4.1294593E-1,5.1340027E0,2.4491727E-1,0E0,0E0,5.3678513E0,0E0,0E0,0E0,0E0,0E0,0E0,0E0,0E0],"parents":[2147483647,0,0,1,1,2,2,3,3,5,5,6,6,8,8,9,9,10,10,11,11,12,12,17,17,18,18,19,19,22,22],"right_children":[2,4,6,8,-1,10,12,-1,14,16,18,20,22,-1,-1,-1,-1,24,26,28,-1,-1,30,-1,-1,-1,-1,-1,-1,-1,-1],"split_conditions":[4.5245E3,4.1775E3,6.543E3,5.8615E3,-9.953597E-3,5.7385E3,2.07E3,8.765461E-3,3.2725E3,6.762E3,3.1995E3,7.9205E3,5.7435E3,1.7961342E-3,1.5793815E-4,-1.0115759E-2,5.956457E-3,5.183E3,1.3595E3,2.8825E3,-4.153654E-3,-2.526474E-2,2.2005E3,-2.3291269E-4,-5.920004E-3,-2.7555095E-2,-1.4401517E-2,5.2657304E-3,4.777016E-4,-1.8776836E-2,-1.0448392E-2],"split_indices":[18276,19886,16819,16497,0,18344,18919,0,15369,15793,20175,15453,16724,0,0,0,0,15397,19468,15422,0,0,18093,0,0,0,0,0,0,0,0],"split_type":[0,0,0,0,0,0,0,0,0,0,0,0,0,0,0,0,0,0,0,0,0,0,0,0,0,0,0,0,0,0,0],"sum_hessian":[1.48E2,9E0,1.39E2,7E0,2E0,3.8E1,1.01E2,4E0,3E0,5E0,3.3E1,9E0,9.2E1,2E0,1E0,3E0,2E0,5E0,2.8E1,4E0,5E0,4E0,8.8E1,2E0,3E0,2E1,8E0,2E0,2E0,1E1,7.8E1],"tree_param":{"num_deleted":"0","num_feature":"30720","num_nodes":"31","size_leaf_vector":"0"}},{"base_weights":[-1.1687673E0,-1.2706301E0,4.1493276E-1,-1.0879271E0,-2.1845055E0,-1.4039091E0,1.0451319E0,-1.7419381E0,-9.5037234E-1,-2.388218E0,-3.0349592E-2,1.1810396E0,4.6889156E-2,-9.9320793E-1,-2.0687E0,-1.6331705E-1,-1.0332458E0,-1.6340717E0,-3.0543716E0,-3.81903E-1,3.363786E-1,-6.619641E-1,2.1619043E-1,-1.1273787E0,-5.4610014E-1,-8.953795E-1,-1.8914955E0],"categories":[],"categories_nodes":[],"categories_segments":[],"categories_sizes":[],"default_left":[1,1,1,1,1,0,1,1,1,1,1,0,0,0,0,1,1,1,0,0,0,0,0,0,0,0,0],"id":16,"left_children":[1,3,5,7,9,-1,11,13,15,17,19,-1,-1,-1,-1,21,23,25,-1,-1,-1,-1,-1,-1,-1,-1,-1],"loss_changes":[2.5209183E1,2.1666794E1,1.2929595E1,9.319916E0,1.00205765E1,0E0,1.0299721E0,2.838482E0,6.54953E0,5.558853E0,5.152377E-1,0E0,0E0,0E0,0E0,2.2247539E0,3.6489868E0,5.882759E-1,0E0,0E0,0E0,0E0,0E0,0E0,0E0,0E0,0E0],"parents":[2147483647,0,0,1,1,2,2,3,3,4,4,6,6,7,7,8,8,9,9,10,10,15,15,16,16,17,17],"right_children":[2,4,6,8,10,-1,12,14,16,18,20,-1,-1,-1,-1,22,24,26,-1,-1,-1,-1,-1,-1,-1,-1,-1],"split_conditions":[3.4315E3,6.5965E3,5.5115E3,4.388E3,5.5175E3,-1.4039091E-2,3.2005E3,6.5345E3,4.332E3,7.1065E3,6.394E3,1.1810396E-2,4.6889155E-4,-9.932079E-3,-2.0687E-2,3.185E3,5.191E3,5.4648E4,-3.0543715E-2,-3.8190298E-3,3.363786E-3,-6.619641E-3,2.1619042E-3,-1.1273786E-2,-5.4610013E-3,-8.953795E-3,-1.8914955E-2],"split_indices":[22509,22022,17014,17460,16195,0,15390,19861,18401,18892,15372,0,0,0,0,16244,16380,20779,0,0,0,0,0,0,0,0,0],"split_type":[0,0,0,0,0,0,0,0,0,0,0,0,0,0,0,0,0,0,0,0,0,0,0,0,0,0,0],"sum_hessian":[1.52E2,1.43E2,9E0,1.21E2,2.2E1,2E0,7E0,1.9E1,1.02E2,2E1,2E0,6E0,1E0,7E0,1.2E1,1E1,9.2E1,1.1E1,9E0,1E0,1E0,4E0,6E0,7.6E1,1.6E1,4E0,7E0],"tree_param":{"num_deleted":"0","num_feature":"30720","num_nodes":"27","size_leaf_vector":"0"}},{"base_weights":[-1.1724035E0,-1.3070388E0,6.599595E-1,-2.3440235E0,-1.1362278E0,-1.063344E0,9.3862426E-1,-3.6517386E0,-1.4595597E0,-1.032759E0,-2.0958424E0,1.109327E0,1.705424E-1,5.9267855E-1,-1.6799694E0,-1.4275922E-1,-1.1177807E0,-1.0335581E0,-2.3650043E0,-2.3880535E-1,-2.1338236E0,-6.676646E-1,2.5256735E-1,3.7655234E-5,-1.1629454E0],"categories":[],"categories_nodes":[],"categories_segments":[],"categories_sizes":[],"default_left":[1,1,1,1,1,0,1,0,1,1,1,0,0,0,1,1,1,0,0,0,0,0,0,0,0],"id":17,"left_children":[1,3,5,7,9,-1,11,-1,13,15,17,-1,-1,-1,19,21,23,-1,-1,-1,-1,-1,-1,-1,-1],"loss_changes":[3.811444E1,2.2311737E1,6.280544E0,1.664598E1,1.0048218E1,0E0,1.1219492E0,0E0,6.876013E0,8.391052E0,7.008171E-1,0E0,0E0,0E0,7.3393707E0,2.45123E0,5.2001038E0,0E0,0E0,0E0,0E0,0E0,0E0,0E0,0E0],"parents":[2147483647,0,0,1,1,2,2,3,3,4,4,6,6,8,8,9,9,10,10,14,14,15,15,16,16],"right_children":[2,4,6,8,10,-1,12,-1,14,16,18,-1,-1,-1,20,22,24,-1,-1,-1,-1,-1,-1,-1,-1],"split_conditions":[3.4315E3,4.8975E3,4.6245E3,7.0155E3,2.253E3,-1.063344E-2,5.8615E3,-3.6517385E-2,5.4648E4,3.8385E3,4.835E3,1.1093269E-2,1.705424E-3,5.9267855E-3,1.0005E3,6.2115E3,3.7775E3,-1.0335581E-2,-2.3650043E-2,-2.3880536E-3,-2.1338236E-2,-6.676646E-3,2.5256735E-3,3.7655232E-7,-1.1629454E-2],"split_indices":[22509,19249,15586,17132,20278,0,16497,0,20772,17312,16425,0,0,0,18355,17082,18045,0,0,0,0,0,0,0,0],"split_type":[0,0,0,0,0,0,0,0,0,0,0,0,0,0,0,0,0,0,0,0,0,0,0,0,0],"sum_hessian":[1.5E2,1.4E2,1E1,1.8E1,1.22E2,1E0,9E0,6E0,1.2E1,1.12E2,1E1,7E0,2E0,1E0,1.1E1,1E1,1.02E2,3E0,7E0,3E0,8E0,4E0,6E0,4E0,9.8E1],"tree_param":{"num_deleted":"0","num_feature":"30720","num_nodes":"25","size_leaf_vector":"0"}},{"base_weights":[-1.1827607E0,-1.3016891E0,3.42944E-1,-1.1566598E0,-2.6741652E0,-8.7925017E-1,8.480365E-1,-1.0337303E0,-2.2998111E0,-2.945253E0,-7.887886E-1,3.335541E-1,-1.394703E0,1.21381E0,3.1265575E-1,-5.6257084E-2,-1.102434E0,-2.8841994E0,-1.4703624E0,1.4760813E-1,4.8642308E-1,2.8540173E-1,-3.8666448E-1,1.5724827E-2,-1.1436117E0,1.6940546E-1,4.110807E-2],"categories":[],"categories_nodes":[],"categories_segments":[],"categories_sizes":[],"default_left":[1,1,1,1,1,1,1,1,1,0,0,0,0,0,1,1,1,0,0,1,0,0,0,0,0,0,0],"id":18,"left_children":[1,3,5,7,9,11,13,15,17,-1,-1,-1,-1,-1,19,21,23,-1,-1,25,-1,-1,-1,-1,-1,-1,-1],"loss_changes":[2.8571136E1,2.5569992E1,8.15349E0,1.6172195E1,4.321144E0,2.965782E0,1.3829484E0,8.063873E0,1.5758209E0,0E0,0E0,0E0,0E0,0E0,7.1599424E-2,1.1263341E0,5.2208557E0,0E0,0E0,2.3217276E-3,0E0,0E0,0E0,0E0,0E0,0E0,0E0],"parents":[2147483647,0,0,1,1,2,2,3,3,4,4,5,5,6,6,7,7,8,8,14,14,15,15,16,16,19,19],"right_children":[2,4,6,8,10,12,14,16,18,-1,-1,-1,-1,-1,20,22,24,-1,-1,26,-1,-1,-1,-1,-1,-1,-1],"split_conditions":[3.4315E3,7.6815E3,5.5115E3,2.253E3,4.8255E3,7.3565E3,8.6885E3,3.5325E3,2.769E3,-2.9452529E-2,-7.887886E-3,3.3355409E-3,-1.394703E-2,1.2138099E-2,7.5445E3,2.8245E3,3.485E3,-2.8841993E-2,-1.4703624E-2,5.5535E3,4.8642308E-3,2.8540173E-3,-3.8666448E-3,1.5724826E-4,-1.1436117E-2,1.6940546E-3,4.1108072E-4],"split_indices":[22509,16840,17014,20278,15371,15367,15783,18660,16140,0,0,0,0,0,15859,15586,19504,0,0,15365,0,0,0,0,0,0,0],"split_type":[0,0,0,0,0,0,0,0,0,0,0,0,0,0,0,0,0,0,0,0,0,0,0,0,0,0,0],"sum_hessian":[1.54E2,1.43E2,1.1E1,1.31E2,1.2E1,3E0,8E0,1.2E2,1.1E1,1E1,2E0,1E0,2E0,4E0,4E0,8E0,1.12E2,5E0,6E0,3E0,1E0,4E0,4E0,4E0,1.08E2,2E0,1E0],"tree_param":{"num_deleted":"0","num_feature":"30720","num_nodes":"27","size_leaf_vector":"0"}},{"base_weights":[-1.2138903E0,-1.3626924E0,3.0769193E-1,-1.1277997E0,-2.3511074E0,1.1827196E0,-3.0984786E-1,-9.38871E-1,-2.1908848E0,-2.5528147E0,-2.0981729E-2,3.697313E-1,-1.2517546E0,-1.657524E-1,-1.0579649E0,-1.2805033E0,-2.7566814E0,-9.699843E-1,-2.74174E0,3.416088E-1,-3.730814E-1,1.4665832E-1,5.439182E-1,3.1492686E-1,-4.677883E-1,-1.495329E-1,-1.1268098E0,-2.7041477E-1,-1.386171E0,-5.559882E-1,-2.827517E0,1.6827607E-1,4.0902525E-2],"categories":[],"categories_nodes":[],"categories_segments":[],"categories_sizes":[],"default_left":[1,1,1,1,1,0,1,1,1,1,1,1,0,1,1,1,0,0,1,0,0,1,0,0,0,0,0,0,0,0,0,0,0],"id":19,"left_children":[1,3,5,7,9,-1,11,13,15,17,19,21,-1,23,25,27,-1,-1,29,-1,-1,31,-1,-1,-1,-1,-1,-1,-1,-1,-1,-1,-1],"loss_changes":[3.392862E1,2.8691544E1,7.9315653E0,2.0237106E1,1.1696533E1,0E0,6.2237153E0,8.663719E0,4.7115097E0,4.218399E0,5.1045185E-1,1.5336823E-1,0E0,2.1798725E0,5.0223923E0,4.7902775E-1,0E0,0E0,2.1776886E0,0E0,0E0,2.261892E-3,0E0,0E0,0E0,0E0,0E0,0E0,0E0,0E0,0E0,0E0,0E0],"parents":[2147483647,0,0,1,1,2,2,3,3,4,4,6,6,7,7,8,8,9,9,10,10,11,11,13,13,14,14,15,15,18,18,21,21],"right_children":[2,4,6,8,10,-1,12,14,16,18,20,22,-1,24,26,28,-1,-1,30,-1,-1,32,-1,-1,-1,-1,-1,-1,-1,-1,-1,-1,-1],"split_conditions":[2.9175E3,5.419E3,7.1235E3,7.0435E3,6.6085E3,1.1827196E-2,3.4435E3,2.1865E3,4.7605E3,9.4425E3,7.3565E3,7.9315E3,-1.2517546E-2,5.132E3,4.0405E3,1.342E3,-2.7566813E-2,-9.699843E-3,3.0405E3,3.416088E-3,-3.7308137E-3,5.5535E3,5.439182E-3,3.1492685E-3,-4.677883E-3,-1.495329E-3,-1.1268098E-2,-2.7041477E-3,-1.3861709E-2,-5.5598817E-3,-2.827517E-2,1.6827607E-3,4.0902523E-4],"split_indices":[22534,20087,19725,21074,15963,0,16214,19980,16595,15558,15367,15887,0,17502,19997,15395,0,0,15363,0,0,15365,0,0,0,0,0,0,0,0,0,0,0],"split_type":[0,0,0,0,0,0,0,0,0,0,0,0,0,0,0,0,0,0,0,0,0,0,0,0,0,0,0,0,0,0,0,0,0],"sum_hessian":[1.47E2,1.34E2,1.3E1,1.1E2,2.4E1,5E0,8E0,9.5E1,1.5E1,2.2E1,2E0,5E0,3E0,1.3E1,8.2E1,7E0,8E0,3E0,1.9E1,1E0,1E0,3E0,2E0,5E0,8E0,6E0,7.6E1,1E0,6E0,1E0,1.8E1,2E0,1E0],"tree_param":{"num_deleted":"0","num_feature":"30720","num_nodes":"33","size_leaf_vector":"0"}},{"base_weights":[-1.1836491E0,-1.3058277E0,3.7095028E-1,-1.8844949E0,-1.0465354E0,-1.3770599E0,8.582583E-1,-2.2756894E0,-1.0025526E0,-2.199585E-1,-1.1451175E0,1.1728636E0,3.090803E-1,-2.6270912E0,-1.4618418E0,-1.8304595E0,-4.0555334E-1,2.257339E-1,-5.7055795E-1,-1.2389913E0,-3.582976E-1,1.4571469E-1,4.812714E-1,-3.1836817E0,-1.4638188E0,-6.969956E-1,-1.7993261E0,-4.1914308E-1,-2.0288942E0,-6.3305475E-2,-9.0309876E-1,5.193067E-1,6.3158005E-2,-1.1559161E0,-2.528442E0,-5.613973E-1,1.3747627E-1,1.6715424E-1,4.069802E-2],"categories":[],"categories_nodes":[],"categories_segments":[],"categories_sizes":[],"default_left":[1,1,1,1,1,0,1,1,1,1,1,0,1,1,1,1,1,1,0,1,1,1,0,0,0,0,0,0,0,0,0,0,0,0,0,0,0,0,0],"id":20,"left_children":[1,3,5,7,9,-1,11,13,15,17,19,-1,21,23,25,27,29,31,-1,33,35,37,-1,-1,-1,-1,-1,-1,-1,-1,-1,-1,-1,-1,-1,-1,-1,-1,-1],"loss_changes":[2.9734985E1,1.9484085E1,1.14037075E1,1.255397E1,7.9781723E0,0E0,1.3652344E0,4.4532623E0,6.671548E0,2.0039084E0,6.203621E0,0E0,7.052216E-2,7.6415253E0,1.5852356E0,8.2992935E-1,1.6456676E0,2.535688E-1,0E0,5.6470566E0,1.1847857E0,2.2031963E-3,0E0,0E0,0E0,0E0,0E0,0E0,0E0,0E0,0E0,0E0,0E0,0E0,0E0,0E0,0E0,0E0,0E0],"parents":[2147483647,0,0,1,1,2,2,3,3,4,4,6,6,7,7,8,8,9,9,10,10,12,12,13,13,14,14,15,15,16,16,17,17,19,19,20,20,21,21],"right_children":[2,4,6,8,10,-1,12,14,16,18,20,-1,22,24,26,28,30,32,-1,34,36,38,-1,-1,-1,-1,-1,-1,-1,-1,-1,-1,-1,-1,-1,-1,-1,-1,-1],"split_conditions":[3.4315E3,6.543E3,5.5115E3,5.9075E3,2.8465E3,-1.3770599E-2,8.6885E3,9.3095E3,4.7505E3,8.485E2,4.723E3,1.1728636E-2,7.5445E3,6.0645E3,5.4648E4,3.0295E3,6.3975E3,1.204E3,-5.705579E-3,6.541E3,3.2295E3,5.5535E3,4.8127137E-3,-3.1836815E-2,-1.4638187E-2,-6.969956E-3,-1.799326E-2,-4.1914308E-3,-2.028894E-2,-6.3305476E-4,-9.0309875E-3,5.1930672E-3,6.3158E-4,-1.155916E-2,-2.5284419E-2,-5.613973E-3,1.3747626E-3,1.6715423E-3,4.069802E-4],"split_indices":[22509,16819,17014,19822,16896,0,15783,18041,20801,16854,16216,0,15859,16042,20779,15404,15463,15406,0,18460,15607,15365,0,0,0,0,0,0,0,0,0,0,0,0,0,0,0,0,0],"split_type":[0,0,0,0,0,0,0,0,0,0,0,0,0,0,0,0,0,0,0,0,0,0,0,0,0,0,0,0,0,0,0,0,0,0,0,0,0,0,0],"sum_hessian":[1.53E2,1.42E2,1.1E1,4.2E1,1E2,2E0,9E0,2.8E1,1.4E1,1.1E1,8.9E1,5E0,4E0,1.8E1,1E1,5E0,9E0,5E0,6E0,7.9E1,1E1,3E0,1E0,1.1E1,7E0,4E0,6E0,1E0,4E0,6E0,3E0,1E0,4E0,7.6E1,3E0,7E0,3E0,2E0,1E0],"tree_param":{"num_deleted":"0","num_feature":"30720","num_nodes":"39","size_leaf_vector":"0"}},{"base_weights":[-1.1717935E0,-1.293917E0,4.3352056E-1,-8.257823E-1,-1.5772568E0,-8.578836E-1,1.0250325E0,3.9883744E-2,-9.8056483E-1,-1.1912028E0,-1.9822614E0,-1.3678795E0,3.3605203E-1,1.3199574E-1,1.1337527E0,2.1159498E-1,-6.669031E-1,-1.0545927E0,-1.7742309E-1,-2.0745537E-1,-1.3372291E0,-2.2843113E0,-7.2161645E-1,3.6969677E-2,4.9031392E-1,-1.0798717E0,-2.1717899E-2,3.156914E-2,-2.3756343E-1,1.5694176E-1,-3.8460258E-1,-1.8571867E0,-1.00582E0,-2.8966844E0,-1.2135879E0,6.2757564E-1,-9.687124E-1],"categories":[],"categories_nodes":[],"categories_segments":[],"categories_sizes":[],"default_left":[1,1,1,1,1,1,1,1,1,1,1,0,0,0,0,1,0,1,1,1,1,1,1,0,0,0,0,0,0,0,0,0,0,0,0,0,0],"id":21,"left_children":[1,3,5,7,9,11,13,15,17,19,21,-1,-1,-1,-1,23,-1,25,27,29,31,33,35,-1,-1,-1,-1,-1,-1,-1,-1,-1,-1,-1,-1,-1,-1],"loss_changes":[2.898767E1,1.6604095E1,9.28205E0,7.1405754E0,1.0616089E1,2.8952878E0,6.2707806E-1,1.2333825E0,2.4883614E0,6.1869698E0,1.320192E1,0E0,0E0,0E0,0E0,3.7124434E-1,0E0,1.0470543E0,7.0344E-2,5.122238E-1,4.85244E0,1.6810776E1,3.6083593E0,0E0,0E0,0E0,0E0,0E0,0E0,0E0,0E0,0E0,0E0,0E0,0E0,0E0,0E0],"parents":[2147483647,0,0,1,1,2,2,3,3,4,4,5,5,6,6,7,7,8,8,9,9,10,10,15,15,17,17,18,18,19,19,20,20,21,21,22,22],"right_children":[2,4,6,8,10,12,14,16,18,20,22,-1,-1,-1,-1,24,-1,26,28,30,32,34,36,-1,-1,-1,-1,-1,-1,-1,-1,-1,-1,-1,-1,-1,-1],"split_conditions":[4.2245E3,5.5685E3,5.5115E3,7.4525E3,2.805E3,4.2895E3,5.1835E3,3.6995E3,5.647E3,5.1145E3,4.029E3,-1.3678795E-2,3.3605201E-3,1.3199573E-3,1.1337527E-2,5.9295E3,-6.6690305E-3,7.4605E3,3.209E3,1.347E3,3.1125E3,2.655E2,5.4648E4,3.6969676E-4,4.903139E-3,-1.0798716E-2,-2.1717898E-4,3.1569137E-4,-2.3756342E-3,1.5694175E-3,-3.8460258E-3,-1.8571867E-2,-1.00582E-2,-2.8966844E-2,-1.2135878E-2,6.2757563E-3,-9.687124E-3],"split_indices":[16220,20491,17014,18792,16735,15406,15497,15405,16339,20282,18960,0,0,0,0,15910,0,16657,15363,15395,19024,17065,20772,0,0,0,0,0,0,0,0,0,0,0,0,0,0],"split_type":[0,0,0,0,0,0,0,0,0,0,0,0,0,0,0,0,0,0,0,0,0,0,0,0,0,0,0,0,0,0,0,0,0,0,0,0,0],"sum_hessian":[1.44E2,1.34E2,1E1,5.2E1,8.2E1,3E0,7E0,8E0,4.4E1,4.4E1,3.8E1,2E0,1E0,1E0,6E0,7E0,1E0,4E1,4E0,6E0,3.8E1,3E1,8E0,5E0,2E0,3.9E1,1E0,1E0,3E0,2E0,4E0,1.3E1,2.5E1,1.8E1,1.2E1,1E0,7E0],"tree_param":{"num_deleted":"0","num_feature":"30720","num_nodes":"37","size_leaf_vector":"0"}},{"base_weights":[-1.1713836E0,-1.2869443E0,2.6480854E-1,-1.0648847E0,-1.9961783E0,-8.518843E-1,7.3169327E-1,-2.553373E0,-9.364412E-1,-3.8335383E-2,-2.1254234E0,-1.3587602E0,3.3437178E-1,8.989711E-1,9.7480714E-2,-2.8219836E0,-3.3654973E-1,-7.979942E-2,-1.0297008E0,-4.122038E-1,3.547007E-1,-9.530928E-1,-2.2691245E0,1.3133577E-1,1.005021E0,-5.364269E-1,2.5776297E-1,-1.8566487E0,-8.927872E-1,-1.4917566E0,-2.531746E0],"categories":[],"categories_nodes":[],"categories_segments":[],"categories_sizes":[],"default_left":[1,1,1,1,1,1,1,1,1,1,1,0,0,1,0,0,0,1,1,0,0,0,1,0,0,0,0,0,0,0,0],"id":22,"left_children":[1,3,5,7,9,11,13,15,17,19,21,-1,-1,23,-1,-1,-1,25,27,-1,-1,-1,29,-1,-1,-1,-1,-1,-1,-1,-1],"loss_changes":[2.5235855E1,1.9765717E1,6.87972E0,1.8257072E1,8.015854E0,2.8594701E0,8.671746E-1,3.813961E0,7.986725E0,5.8704036E-1,2.8912659E0,0E0,0E0,4.3785858E-1,0E0,0E0,0E0,1.8338139E0,8.645454E0,0E0,0E0,0E0,1.53125E0,0E0,0E0,0E0,0E0,0E0,0E0,0E0,0E0],"parents":[2147483647,0,0,1,1,2,2,3,3,4,4,5,5,6,6,7,7,8,8,9,9,10,10,13,13,17,17,18,18,22,22],"right_children":[2,4,6,8,10,12,14,16,18,20,22,-1,-1,24,-1,-1,-1,26,28,-1,-1,-1,30,-1,-1,-1,-1,-1,-1,-1,-1],"split_conditions":[3.4315E3,6.5095E3,5.5115E3,3.7745E3,4.5245E3,4.2895E3,2.1135E3,6.324E3,2.8465E3,6.394E3,8.445E3,-1.3587602E-2,3.3437177E-3,5.1835E3,9.7480713E-4,-2.8219836E-2,-3.365497E-3,3.682E3,1.9065E3,-4.122038E-3,3.547007E-3,-9.530928E-3,4.8965E3,1.3133576E-3,1.0050209E-2,-5.364269E-3,2.5776296E-3,-1.8566485E-2,-8.927872E-3,-1.49175655E-2,-2.5317458E-2],"split_indices":[22509,22030,17014,18850,18276,15406,16255,15365,16896,15372,21063,0,0,15497,0,0,0,16211,16247,0,0,0,17625,0,0,0,0,0,0,0,0],"split_type":[0,0,0,0,0,0,0,0,0,0,0,0,0,0,0,0,0,0,0,0,0,0,0,0,0,0,0,0,0,0,0],"sum_hessian":[1.49E2,1.38E2,1.1E1,1.07E2,3.1E1,3E0,8E0,7E0,1E2,2E0,2.9E1,2E0,1E0,6E0,2E0,6E0,1E0,1E1,9E1,1E0,1E0,4E0,2.5E1,1E0,5E0,4E0,6E0,1.1E1,7.9E1,8E0,1.7E1],"tree_param":{"num_deleted":"0","num_feature":"30720","num_nodes":"31","size_leaf_vector":"0"}},{"base_weights":[-1.2111661E0,-1.2927861E0,1.9305238E-1,-1.854029E0,-1.016237E0,-1.0240847E0,6.871036E-1,-2.205674E0,-1.0036944E0,-3.0692369E-2,-1.0934069E0,1.3796267E-1,1.0644687E0,-1.3158641E0,-2.9576292E0,-1.15999855E-1,-1.2159514E0,-2.530795E-1,8.5616596E-2,-1.1570178E0,-2.0619022E-2,1.61058E-1,3.4338355E-2,-6.9171643E-1,-1.5366843E0,-1.3580253E0,-3.3776617E0,2.6839614E-2,-1.7255954E-1,-2.9101035E-1,-1.3718386E0,1.3659987E-1,-1.0899971E-2,-1.2343428E0,-4.6137828E-1,-1.592527E-1,1.7109889E-1],"categories":[],"categories_nodes":[],"categories_segments":[],"categories_sizes":[],"default_left":[1,1,1,1,1,0,1,1,1,1,1,1,0,1,1,1,1,0,1,1,1,0,0,0,0,0,0,0,0,0,0,0,0,0,0,0,0],"id":23,"left_children":[1,3,5,7,9,-1,11,13,15,17,19,21,-1,23,25,27,29,-1,31,33,35,-1,-1,-1,-1,-1,-1,-1,-1,-1,-1,-1,-1,-1,-1,-1,-1],"loss_changes":[1.7212204E1,1.9845428E1,6.115605E0,1.1241898E1,7.267662E0,0E0,1.3037293E0,1.6850174E1,2.6852398E0,2.2859275E-1,6.0495834E0,4.0424764E-3,0E0,1.1422405E0,6.1632233E0,3.6947258E-2,1.3310184E0,0E0,3.1013321E-2,3.9488983E0,1.867193E-1,0E0,0E0,0E0,0E0,0E0,0E0,0E0,0E0,0E0,0E0,0E0,0E0,0E0,0E0,0E0,0E0],"parents":[2147483647,0,0,1,1,2,2,3,3,4,4,6,6,7,7,8,8,9,9,10,10,11,11,13,13,14,14,15,15,16,16,18,18,19,19,20,20],"right_children":[2,4,6,8,10,-1,12,14,16,18,20,22,-1,24,26,28,30,-1,32,34,36,-1,-1,-1,-1,-1,-1,-1,-1,-1,-1,-1,-1,-1,-1,-1,-1],"split_conditions":[4.8505E3,2.655E2,5.5345E3,4.696E3,4.332E3,-1.0240846E-2,7.9315E3,4.2175E3,1.1645E3,2.8085E3,1.22E3,5.5535E3,1.0644687E-2,5.4648E4,7.1575E3,3.2365E3,7.0815E3,-2.530795E-3,4.5365E3,7.995E3,4.38E3,1.6105799E-3,3.4338355E-4,-6.917164E-3,-1.5366842E-2,-1.3580252E-2,-3.3776615E-2,2.6839614E-4,-1.7255954E-3,-2.9101034E-3,-1.3718385E-2,1.3659986E-3,-1.0899971E-4,-1.2343428E-2,-4.6137827E-3,-1.592527E-3,1.7109888E-3],"split_indices":[19067,17065,15909,16391,18401,0,15887,19189,18599,15456,18719,15365,0,20772,20151,15363,16746,0,15454,15528,15395,0,0,0,0,0,0,0,0,0,0,0,0,0,0,0,0],"split_type":[0,0,0,0,0,0,0,0,0,0,0,0,0,0,0,0,0,0,0,0,0,0,0,0,0,0,0,0,0,0,0,0,0,0,0,0,0],"sum_hessian":[1.47E2,1.39E2,8E0,4.4E1,9.5E1,2E0,6E0,3E1,1.4E1,7E0,8.8E1,3E0,3E0,1.5E1,1.5E1,3E0,1.1E1,2E0,5E0,8.3E1,5E0,2E0,1E0,5E0,1E1,4E0,1.1E1,1E0,2E0,2E0,9E0,3E0,2E0,7.4E1,9E0,3E0,2E0],"tree_param":{"num_deleted":"0","num_feature":"30720","num_nodes":"37","size_leaf_vector":"0"}},{"base_weights":[-1.1017164E0,-1.2340896E0,4.391358E-1,-1.0207639E0,-2.112794E0,-9.3003494E-1,7.7262455E-1,-9.521709E-1,-3.3099062E0,-2.282599E0,6.513933E-3,1.1481348E0,2.683435E-1,-2.441398E-1,-1.089759E0,-1.2105101E0,-2.4900959E0,3.5804763E-1,-3.4827673E-1,1.3687268E-1,4.628488E-1,1.6820762E-1,-5.3305537E-1,-1.0064775E-1,-1.1545814E0,6.353551E-1,-1.7067542E0,-1.4644129E0,-2.8250732E0,1.5400751E-1,3.4166664E-2],"categories":[],"categories_nodes":[],"categories_segments":[],"categories_sizes":[],"default_left":[1,1,1,1,1,0,1,1,0,1,1,0,1,1,1,1,1,0,0,1,0,0,0,0,0,0,0,0,0,0,0],"id":24,"left_children":[1,3,5,7,9,-1,11,13,-1,15,17,-1,19,21,23,25,27,-1,-1,29,-1,-1,-1,-1,-1,-1,-1,-1,-1,-1,-1],"loss_changes":[3.2156906E1,2.4648712E1,6.6544075E0,1.5219635E1,9.731331E0,0E0,1.7748952E0,1.0936859E1,0E0,2.5470886E0,4.988623E-1,0E0,9.007931E-2,2.4723358E0,6.0389786E0,6.580394E0,2.7345428E0,0E0,0E0,3.537327E-3,0E0,0E0,0E0,0E0,0E0,0E0,0E0,0E0,0E0,0E0,0E0],"parents":[2147483647,0,0,1,1,2,2,3,3,4,4,6,6,7,7,9,9,10,10,12,12,13,13,14,14,15,15,16,16,19,19],"right_children":[2,4,6,8,10,-1,12,14,-1,16,18,-1,20,22,24,26,28,-1,-1,30,-1,-1,-1,-1,-1,-1,-1,-1,-1,-1,-1],"split_conditions":[2.9165E3,5.905E3,3.4875E3,7.7025E3,5.5175E3,-9.300349E-3,7.1235E3,3.2415E3,-3.3099063E-2,4.4745E3,7.3565E3,1.1481348E-2,7.5445E3,5.084E3,3.7875E3,5.4648E4,3.6955E3,3.5804762E-3,-3.4827674E-3,5.5535E3,4.628488E-3,1.6820761E-3,-5.3305537E-3,-1.0064774E-3,-1.1545814E-2,6.353551E-3,-1.7067542E-2,-1.4644129E-2,-2.8250732E-2,1.540075E-3,3.4166663E-4],"split_indices":[22534,17560,19521,20196,16195,0,19725,16238,0,15806,15367,0,15859,17073,18045,20772,16211,0,0,15365,0,0,0,0,0,0,0,0,0,0,0],"split_type":[0,0,0,0,0,0,0,0,0,0,0,0,0,0,0,0,0,0,0,0,0,0,0,0,0,0,0,0,0,0,0],"sum_hessian":[1.54E2,1.42E2,1.2E1,1.16E2,2.6E1,2E0,1E1,1.14E2,2E0,2.4E1,2E0,5E0,5E0,1.9E1,9.5E1,5E0,1.9E1,1E0,1E0,4E0,1E0,8E0,1.1E1,6E0,8.9E1,1E0,4E0,6E0,1.3E1,3E0,1E0],"tree_param":{"num_deleted":"0","num_feature":"30720","num_nodes":"31","size_leaf_vector":"0"}},{"base_weights":[-1.0914781E0,-1.2041284E0,3.2311848E-1,-9.6501756E-1,-2.0566711E0,-1.3368706E0,7.8880334E-1,-3.4572613E-1,-1.1299865E0,-5.6340957E-1,-2.143211E0,1.0581234E0,-1.9231777E-1,3.6886975E-2,-7.017449E-1,-1.0590906E0,-2.7856746E0,-2.502192E0,-1.4560533E0,-3.978092E-1,1.0933256E-1,-1.7105588E-1,4.0380675E-1,-1.095129E0,-4.0522656E-1,-3.3716863E-1,-1.1496439E0,-3.0100498E0,-1.5545957E0],"categories":[],"categories_nodes":[],"categories_segments":[],"categories_sizes":[],"default_left":[1,1,1,1,1,0,1,1,1,0,1,0,1,1,1,1,0,1,0,0,0,0,0,0,0,0,0,0,0],"id":25,"left_children":[1,3,5,7,9,-1,11,13,15,-1,17,-1,19,21,23,25,-1,27,-1,-1,-1,-1,-1,-1,-1,-1,-1,-1,-1],"loss_changes":[2.4610977E1,2.6758438E1,1.033091E1,1.1051689E1,2.6692886E0,0E0,2.845851E0,3.4313216E0,7.3792877E0,0E0,3.2636108E0,0E0,2.2945318E-1,1.0609521E0,1.072618E0,5.2344055E0,0E0,3.5017471E0,0E0,0E0,0E0,0E0,0E0,0E0,0E0,0E0,0E0,0E0,0E0],"parents":[2147483647,0,0,1,1,2,2,3,3,4,4,6,6,7,7,8,8,10,10,12,12,13,13,14,14,15,15,17,17],"right_children":[2,4,6,8,10,-1,12,14,16,-1,18,-1,20,22,24,26,-1,28,-1,-1,-1,-1,-1,-1,-1,-1,-1,-1,-1],"split_conditions":[4.2215E3,6.1245E3,5.5115E3,6.5425E3,5.0495E3,-1.3368705E-2,5.596E3,6.2275E3,1.168E3,-5.6340955E-3,4.42E3,1.0581234E-2,7.3565E3,8.4805E3,2.4465E3,2.6215E3,-2.7856745E-2,1.5575E3,-1.4560532E-2,-3.9780918E-3,1.0933256E-3,-1.7105588E-3,4.0380675E-3,-1.095129E-2,-4.0522655E-3,-3.3716862E-3,-1.1496439E-2,-3.0100498E-2,-1.5545957E-2],"split_indices":[16220,22025,17014,17168,15812,0,17622,21906,16678,0,19264,0,15367,16467,19777,19594,0,18419,0,0,0,0,0,0,0,0,0,0,0],"split_type":[0,0,0,0,0,0,0,0,0,0,0,0,0,0,0,0,0,0,0,0,0,0,0,0,0,0,0,0,0],"sum_hessian":[1.51E2,1.4E2,1.1E1,1.11E2,2.9E1,2E0,9E0,2.4E1,8.7E1,2E0,2.7E1,7E0,2E0,1.2E1,1.2E1,8.5E1,2E0,1.6E1,1.1E1,1E0,1E0,8E0,4E0,4E0,8E0,1E1,7.5E1,9E0,7E0],"tree_param":{"num_deleted":"0","num_feature":"30720","num_nodes":"29","size_leaf_vector":"0"}},{"base_weights":[-1.1140099E0,-1.241901E0,3.7848568E-1,-1.89943E0,-9.858483E-1,-6.4677376E-1,9.060203E-1,-8.214615E-1,-2.1511168E0,-2.5772998E-2,-1.0755869E0,-1.3279581E0,2.5000194E-1,1.0984263E0,1.5506603E-1,-1.9094852E-1,-1.1048932E0,-2.4737227E0,-1.3396764E0,-4.3339232E-1,3.1820527E-1,-2.4988332E0,-1.0028065E0,3.4629768E-1,2.870521E-2,-3.9582014E-1,9.282072E-3,-1.3849036E0,-3.632484E-1,-1.3912721E0,-2.9155715E0,-2.6777497E-1,-1.4200891E0,-4.7922128E-1,-1.2503819E-1,5.127645E-1,9.273453E-2,-1.0927526E0,-5.0164425E-1],"categories":[],"categories_nodes":[],"categories_segments":[],"categories_sizes":[],"default_left":[1,1,1,1,1,1,1,1,1,1,1,0,1,0,0,1,1,1,1,1,1,0,1,0,0,0,0,0,0,0,0,0,0,0,0,0,0,0,0],"id":26,"left_children":[1,3,5,7,9,11,13,15,17,19,21,-1,23,-1,-1,25,27,29,31,33,35,-1,37,-1,-1,-1,-1,-1,-1,-1,-1,-1,-1,-1,-1,-1,-1,-1,-1],"loss_changes":[3.005597E1,2.2203217E1,7.6171675E0,8.814056E0,9.018646E0,3.3863401E0,1.130065E0,1.3973889E0,4.801071E0,1.5400296E0,7.4382477E0,0E0,5.3989246E-2,0E0,0E0,1.677603E-1,7.429452E-1,5.987503E0,5.67873E-1,1.0736823E-2,2.1565354E-1,0E0,3.6440353E0,0E0,0E0,0E0,0E0,0E0,0E0,0E0,0E0,0E0,0E0,0E0,0E0,0E0,0E0,0E0,0E0],"parents":[2147483647,0,0,1,1,2,2,3,3,4,4,5,5,6,6,7,7,8,8,9,9,10,10,12,12,15,15,16,16,17,17,18,18,19,19,20,20,22,22],"right_children":[2,4,6,8,10,12,14,16,18,20,22,-1,24,-1,-1,26,28,30,32,34,36,-1,38,-1,-1,-1,-1,-1,-1,-1,-1,-1,-1,-1,-1,-1,-1,-1,-1],"split_conditions":[3.4315E3,6.543E3,9.3105E3,7.1545E3,4.6745E3,4.2895E3,5.8615E3,5.6685E3,8.8205E3,6.812E3,5.7435E3,-1.32795805E-2,6.8605E3,1.0984263E-2,1.5506602E-3,3.2725E3,7.1075E3,3.358E3,4.3565E3,1.3755E3,2.8825E3,-2.498833E-2,4.5355E3,3.4629768E-3,2.870521E-4,-3.9582015E-3,9.2820716E-5,-1.3849035E-2,-3.632484E-3,-1.3912721E-2,-2.9155714E-2,-2.6777496E-3,-1.4200891E-2,-4.7922125E-3,-1.2503819E-3,5.127645E-3,9.273453E-4,-1.0927525E-2,-5.0164424E-3],"split_indices":[22509,16819,18041,18996,17422,15406,16497,18324,19896,15451,16724,0,15362,0,0,15369,18892,16295,15455,15395,15422,0,20688,0,0,0,0,0,0,0,0,0,0,0,0,0,0,0,0],"split_type":[0,0,0,0,0,0,0,0,0,0,0,0,0,0,0,0,0,0,0,0,0,0,0,0,0,0,0,0,0,0,0,0,0,0,0,0,0,0,0],"sum_hessian":[1.54E2,1.42E2,1.2E1,3.8E1,1.04E2,4E0,8E0,8E0,3E1,9E0,9.5E1,2E0,2E0,6E0,2E0,3E0,5E0,2E1,1E1,4E0,5E0,3E0,9.2E1,1E0,1E0,1E0,2E0,3E0,2E0,7E0,1.3E1,1E0,9E0,3E0,1E0,2E0,3E0,7.7E1,1.5E1],"tree_param":{"num_deleted":"0","num_feature":"30720","num_nodes":"39","size_leaf_vector":"0"}},{"base_weights":[-1.0625982E0,-1.2123626E0,5.735162E-1,-2.7185383E0,-1.0850527E0,8.028574E-1,-9.746187E-1,-9.609795E-1,-2.0802722E0,1.0589583E0,2.8374475E-1,-4.8303914E-1,-1.1546702E0,-8.865594E-1,-2.2303588E0,1.2980503E-1,4.4975182E-1,-1.0314041E0,-1.4668585E-1,-2.008743E0,-1.0497705E0,1.5403225E-1,2.8561682E-2],"categories":[],"categories_nodes":[],"categories_segments":[],"categories_sizes":[],"default_left":[1,1,1,0,1,1,0,1,1,0,1,1,1,0,0,1,0,0,0,0,0,0,0],"id":27,"left_children":[1,3,5,-1,7,9,-1,11,13,-1,15,17,19,-1,-1,21,-1,-1,-1,-1,-1,-1,-1],"loss_changes":[3.3774582E1,2.0827362E1,5.0430937E0,0E0,1.2324585E1,1.1619234E0,0E0,9.162384E0,1.725769E-1,0E0,6.939539E-2,5.750928E0,4.52108E0,0E0,0E0,5.41196E-3,0E0,0E0,0E0,0E0,0E0,0E0,0E0],"parents":[2147483647,0,0,1,1,2,2,4,4,5,5,7,7,8,8,10,10,11,11,12,12,15,15],"right_children":[2,4,6,-1,8,10,-1,12,14,-1,16,18,20,-1,-1,22,-1,-1,-1,-1,-1,-1,-1],"split_conditions":[3.4315E3,4.5445E3,8.9915E3,-2.7185382E-2,6.0715E3,8.6885E3,-9.746186E-3,5.0905E3,8.022E3,1.0589583E-2,7.5445E3,3.641E3,5.7095E3,-8.865594E-3,-2.2303589E-2,5.5535E3,4.4975183E-3,-1.0314041E-2,-1.4668585E-3,-2.008743E-2,-1.0497704E-2,1.5403224E-3,2.856168E-4],"split_indices":[22509,17135,15813,0,19178,15783,0,19999,15482,0,15859,18485,18885,0,0,15365,0,0,0,0,0,0,0],"split_type":[0,0,0,0,0,0,0,0,0,0,0,0,0,0,0,0,0,0,0,0,0,0,0],"sum_hessian":[1.34E2,1.23E2,1.1E1,8E0,1.15E2,1E1,1E0,1.04E2,1.1E1,6E0,4E0,3.1E1,7.3E1,2E0,9E0,3E0,1E0,1.1E1,2E1,6E0,6.7E1,2E0,1E0],"tree_param":{"num_deleted":"0","num_feature":"30720","num_nodes":"23","size_leaf_vector":"0"}},{"base_weights":[-1.0608928E0,-1.1761012E0,6.975066E-2,-1.9064313E0,-9.2841244E-1,-8.909737E-1,5.001026E-1,-2.8501415E0,-1.5562049E0,-5.2567774E-1,-1.1138674E0,8.216918E-1,-5.014287E-2,-2.6633227E0,-1.1835272E0,-3.230761E-1,-1.1690738E0,-4.0220782E-1,-1.2106856E0,1.2226766E-1,9.178846E-1,-3.3674502E-1,1.0569392E-1,-1.2721972E0,3.392714E-1,3.413734E-1,-4.4804156E-1,-1.8744996E-1,-1.4650401E0,-1.327233E-2,-5.669984E-1,-1.5270782E0,-9.39761E-1,1.2197932E-1,2.8418869E-2],"categories":[],"categories_nodes":[],"categories_segments":[],"categories_sizes":[],"default_left":[1,1,1,1,1,0,1,0,1,1,1,1,1,0,1,1,1,1,1,0,0,0,1,0,0,0,0,0,0,0,0,0,0,0,0],"id":28,"left_children":[1,3,5,7,9,-1,11,-1,13,15,17,19,21,-1,23,25,27,29,31,-1,-1,-1,33,-1,-1,-1,-1,-1,-1,-1,-1,-1,-1,-1,-1],"loss_changes":[1.98815E1,2.3193512E1,6.6473217E0,6.8020096E0,7.2568207E0,0E0,1.987685E0,0E0,7.988037E0,4.184658E0,4.405075E0,3.587289E-1,2.589077E-1,0E0,3.4022045E0,2.4778805E0,2.0495987E0,6.3340366E-1,3.8794556E0,0E0,0E0,0E0,1.5673041E-3,0E0,0E0,0E0,0E0,0E0,0E0,0E0,0E0,0E0,0E0,0E0,0E0],"parents":[2147483647,0,0,1,1,2,2,3,3,4,4,6,6,8,8,9,9,10,10,11,11,12,12,14,14,15,15,16,16,17,17,18,18,22,22],"right_children":[2,4,6,8,10,-1,12,-1,14,16,18,20,22,-1,24,26,28,30,32,-1,-1,-1,34,-1,-1,-1,-1,-1,-1,-1,-1,-1,-1,-1,-1],"split_conditions":[4.5695E3,6.569E3,5.8575E3,7.3515E3,3.8815E3,-8.909737E-3,2.5205E3,-2.8501414E-2,6.7455E3,1.3495E3,3.7075E3,5.1835E3,1.9715E3,-2.6633225E-2,5.541E3,6.8325E3,3.3335E3,2.2195E3,7.516E3,1.2226766E-3,9.178845E-3,-3.36745E-3,5.5535E3,-1.2721973E-2,3.3927138E-3,3.413734E-3,-4.4804155E-3,-1.8744996E-3,-1.4650401E-2,-1.327233E-4,-5.669984E-3,-1.5270781E-2,-9.397609E-3,1.2197931E-3,2.841887E-4],"split_indices":[19936,16819,21531,19792,16110,0,16694,0,18823,18119,16624,15497,15424,0,15909,17702,15619,15436,16332,0,0,0,15365,0,0,0,0,0,0,0,0,0,0,0,0],"split_type":[0,0,0,0,0,0,0,0,0,0,0,0,0,0,0,0,0,0,0,0,0,0,0,0,0,0,0,0,0,0,0,0,0,0,0],"sum_hessian":[1.51E2,1.37E2,1.4E1,3.3E1,1.04E2,4E0,1E1,7E0,2.6E1,3.4E1,7E1,6E0,4E0,5E0,2.1E1,2.7E1,7E0,9E0,6.1E1,1E0,5E0,1E0,3E0,2E1,1E0,4E0,2.3E1,2E0,5E0,3E0,6E0,2.6E1,3.5E1,2E0,1E0],"tree_param":{"num_deleted":"0","num_feature":"30720","num_nodes":"35","size_leaf_vector":"0"}},{"base_weights":[-1.0340201E0,-1.0936275E0,8.5371244E-1,-2.2253015E0,-9.9025315E-1,1.0530021E0,2.8276771E-2,-5.25662E-1,-2.5445924E0,-2.210647E0,-9.035321E-1,-1.4553543E0,6.6686136E-1,-1.1133633E0,-3.0295901E0,-8.1038505E-1,-1.8843704E0,-2.0585366E-1,-9.1315216E-1,-1.9763389E0,-5.283273E-1],"categories":[],"categories_nodes":[],"categories_segments":[],"categories_sizes":[],"default_left":[1,1,1,1,1,0,0,1,0,1,1,0,0,0,0,1,1,0,0,0,0],"id":29,"left_children":[1,3,5,7,9,-1,-1,11,-1,13,15,-1,-1,-1,-1,17,19,-1,-1,-1,-1],"loss_changes":[1.724945E1,1.4291412E1,7.927294E-1,4.631878E0,1.1866852E1,0E0,0E0,4.2965593E0,0E0,3.8158646E0,9.801842E0,0E0,0E0,0E0,0E0,6.9565125E0,2.0297623E-1,0E0,0E0,0E0,0E0],"parents":[2147483647,0,0,1,1,2,2,3,3,4,4,7,7,9,9,10,10,15,15,16,16],"right_children":[2,4,6,8,10,-1,-1,12,-1,14,16,-1,-1,-1,-1,18,20,-1,-1,-1,-1],"split_conditions":[5.7205E3,4.5445E3,3.2E3,5.4648E4,3.8675E3,1.0530021E-2,2.827677E-4,5.19925E4,-2.5445923E-2,5.5535E3,7.9735E3,-1.4553543E-2,6.6686133E-3,-1.1133633E-2,-3.0295901E-2,3.6075E3,4.4645E3,-2.0585365E-3,-9.131521E-3,-1.9763388E-2,-5.283273E-3],"split_indices":[16080,17135,15390,20772,16268,0,0,0,0,15447,18394,0,0,0,0,18580,15407,0,0,0,0],"split_type":[0,0,0,0,0,0,0,0,0,0,0,0,0,0,0,0,0,0,0,0,0],"sum_hessian":[1.44E2,1.4E2,4E0,1E1,1.3E2,3E0,1E0,2E0,8E0,7E0,1.23E2,1E0,1E0,4E0,3E0,1.14E2,9E0,1.7E1,9.7E1,8E0,1E0],"tree_param":{"num_deleted":"0","num_feature":"30720","num_nodes":"21","size_leaf_vector":"0"}},{"base_weights":[-1.1352308E0,-2.7238815E0,-1.0072478E0,-7.6088387E-1,-2.8574495E0,-4.7973734E-1,-1.2539502E0,-6.2663096E-1,7.9135925E-1,-1.7449945E0,-9.0974027E-1,6.0075726E-3,-8.9797634E-1,9.751314E-1,2.813539E-2,-2.6917188E0,-1.2773422E0,-3.8709262E-1,-9.778953E-1,2.2096965E-1,-5.328995E-1,-1.0303153E0,1.5363602E-1,-5.830501E-1,-1.6106116E0,-4.5834422E-1,5.5834234E-2,-3.5384476E-1,-1.0422304E0],"categories":[],"categories_nodes":[],"categories_segments":[],"categories_sizes":[],"default_left":[1,1,1,0,0,1,1,1,1,1,1,1,1,0,0,0,1,1,1,0,0,0,0,0,0,0,0,0,0],"id":30,"left_children":[1,3,5,-1,-1,7,9,11,13,15,17,19,21,-1,-1,-1,23,25,27,-1,-1,-1,-1,-1,-1,-1,-1,-1,-1],"loss_changes":[2.6127869E1,4.477539E-1,1.6706787E1,0E0,0E0,8.711394E0,1.3624512E1,6.871937E0,6.7386055E-1,1.2500313E1,1.5806236E0,1.6237342E0,4.055031E0,0E0,0E0,0E0,5.0769806E0,2.780652E-1,1.5583344E0,0E0,0E0,0E0,0E0,0E0,0E0,0E0,0E0,0E0,0E0],"parents":[2147483647,0,0,1,1,2,2,5,5,6,6,7,7,8,8,9,9,10,10,11,11,12,12,16,16,17,17,18,18],"right_children":[2,4,6,-1,-1,8,10,12,14,16,18,20,22,-1,-1,-1,24,26,28,-1,-1,-1,-1,-1,-1,-1,-1,-1,-1],"split_conditions":[5.761E3,5.4648E4,6.3435E3,-7.6088384E-3,-2.8574495E-2,6.4095E3,5.0705E3,1.1505E3,5.554E3,8.215E3,5.176E3,4.5435E3,5.3435E3,9.751313E-3,2.813539E-4,-2.6917187E-2,2.5515E3,4.0475E3,1.6465E3,2.2096965E-3,-5.3289947E-3,-1.0303153E-2,1.5363602E-3,-5.8305007E-3,-1.6106116E-2,-4.583442E-3,5.583423E-4,-3.5384474E-3,-1.0422303E-2],"split_indices":[18610,20763,17376,0,0,22420,18676,20827,15365,19171,19512,15524,16304,0,0,0,19067,15360,16209,0,0,0,0,0,0,0,0,0,0],"split_type":[0,0,0,0,0,0,0,0,0,0,0,0,0,0,0,0,0,0,0,0,0,0,0,0,0,0,0,0,0],"sum_hessian":[1.41E2,9E0,1.32E2,1E0,8E0,4.3E1,8.9E1,3.9E1,4E0,3.5E1,5.4E1,1.2E1,2.7E1,3E0,1E0,1E1,2.5E1,7E0,4.7E1,9E0,3E0,2.4E1,3E0,9E0,1.6E1,6E0,1E0,5E0,4.2E1],"tree_param":{"num_deleted":"0","num_feature":"30720","num_nodes":"29","size_leaf_vector":"0"}},{"base_weights":[-1.0316958E0,-1.0961719E0,7.4140966E-1,-6.0414004E-1,-1.2711915E0,1.0478184E0,8.572803E-2,3.056769E-2,-8.3788514E-1,-1.3305708E0,6.2016004E-1,-2.7922648E-1,2.2036809E-1,-1.0169054E0,-4.8461252E-1,-1.0895159E0,-1.9049262E0,7.742692E-1,7.891626E-2,-4.7190398E-2,-3.254379E-1,7.841254E-2,4.3082315E-1,-1.0762597E0,2.5735795E-2,-5.4282457E-1,-2.3248228E-1,-2.5601673E0,-9.952981E-1,-2.0426664E0,1.5624027E-2],"categories":[],"categories_nodes":[],"categories_segments":[],"categories_sizes":[],"default_left":[1,1,1,1,1,0,0,1,1,1,1,1,1,1,1,1,1,0,0,0,0,0,0,0,0,0,0,0,0,0,0],"id":31,"left_children":[1,3,5,7,9,-1,-1,11,13,15,17,19,21,23,25,27,29,-1,-1,-1,-1,-1,-1,-1,-1,-1,-1,-1,-1,-1,-1],"loss_changes":[1.8418442E1,1.2063171E1,1.1156123E0,6.108365E0,1.3066666E1,0E0,0E0,7.671213E-1,1.4044838E0,1.2600372E1,2.725401E-1,3.825605E-2,2.0522022E-1,1.2035179E0,4.9926996E-2,8.121117E0,7.9680176E0,0E0,0E0,0E0,0E0,0E0,0E0,0E0,0E0,0E0,0E0,0E0,0E0,0E0,0E0],"parents":[2147483647,0,0,1,1,2,2,3,3,4,4,7,7,8,8,9,9,10,10,11,11,12,12,13,13,14,14,15,15,16,16],"right_children":[2,4,6,8,10,-1,-1,12,14,16,18,20,22,24,26,28,30,-1,-1,-1,-1,-1,-1,-1,-1,-1,-1,-1,-1,-1,-1],"split_conditions":[5.7205E3,4.8635E3,2.1135E3,5.3875E3,9.146E3,1.0478184E-2,8.572803E-4,6.8365E3,5.3995E3,4.0525E3,3.2725E3,1.254E3,3.7975E3,5.7765E3,3.4435E3,6.702E3,5.5175E3,7.7426923E-3,7.891626E-4,-4.7190397E-4,-3.254379E-3,7.841254E-4,4.308231E-3,-1.0762597E-2,2.5735795E-4,-5.4282458E-3,-2.3248228E-3,-2.5601672E-2,-9.952981E-3,-2.0426665E-2,1.5624026E-4],"split_indices":[16080,15417,16255,18100,17478,0,0,17688,19815,17345,15369,15395,15757,15460,19209,17682,16195,0,0,0,0,0,0,0,0,0,0,0,0,0,0],"split_type":[0,0,0,0,0,0,0,0,0,0,0,0,0,0,0,0,0,0,0,0,0,0,0,0,0,0,0,0,0,0,0],"sum_hessian":[1.53E2,1.48E2,5E0,4E1,1.08E2,3E0,2E0,1.1E1,2.9E1,1.05E2,3E0,4E0,7E0,1.8E1,1.1E1,7.6E1,2.9E1,2E0,1E0,1E0,3E0,5E0,2E0,1.7E1,1E0,8E0,3E0,3E0,7.3E1,2.7E1,2E0],"tree_param":{"num_deleted":"0","num_feature":"30720","num_nodes":"31","size_leaf_vector":"0"}},{"base_weights":[-1.0719619E0,-2.4724877E0,-9.442599E-1,-4.94692E-1,-2.8185775E0,-1.0480226E0,5.094575E-1,-1.4300656E0,6.880276E-1,-7.468661E-1,-2.9657826E0,-8.975787E-1,-1.5942665E0,7.9046345E-1,-1.0966717E-1,-7.879856E-1,-1.7624662E0,-9.239948E-1,-2.0688844E0,1.2158257E-1,8.8167983E-1,-3.2542208E-1,7.0725165E-2,-2.1094164E-2,-8.7795997E-1,-2.2777283E0,-9.534597E-1,-1.0605786E0,3.5750568E-1],"categories":[],"categories_nodes":[],"categories_segments":[],"categories_sizes":[],"default_left":[1,1,1,1,1,1,1,0,0,0,0,1,1,1,1,1,1,1,0,0,0,0,0,0,0,0,0,0,0],"id":32,"left_children":[1,3,5,7,9,11,13,-1,-1,-1,-1,15,17,19,21,23,25,27,-1,-1,-1,-1,-1,-1,-1,-1,-1,-1,-1],"loss_changes":[2.4671677E1,6.819618E0,2.1651756E1,4.302779E0,8.346176E-1,9.334473E0,1.8264651E0,0E0,0E0,0E0,0E0,8.563705E0,6.677681E0,3.1989336E-1,1.7869766E-1,6.536541E0,2.4136314E0,2.654583E0,0E0,0E0,0E0,0E0,0E0,0E0,0E0,0E0,0E0,0E0,0E0],"parents":[2147483647,0,0,1,1,2,2,3,3,4,4,5,5,6,6,11,11,12,12,13,13,14,14,15,15,16,16,17,17],"right_children":[2,4,6,8,10,12,14,-1,-1,-1,-1,16,18,20,22,24,26,28,-1,-1,-1,-1,-1,-1,-1,-1,-1,-1,-1],"split_conditions":[4.5445E3,5.4648E4,7.9505E3,5.19925E4,5.4648E4,6.9935E3,2.5205E3,-1.4300656E-2,6.880276E-3,-7.468661E-3,-2.9657826E-2,5.4195E3,6.0515E3,5.1835E3,3.2725E3,4.1495E3,1.178E3,5.5415E3,-2.0688843E-2,1.2158257E-3,8.816798E-3,-3.2542208E-3,7.0725166E-4,-2.1094164E-4,-8.779599E-3,-2.2777284E-2,-9.534596E-3,-1.0605786E-2,3.5750568E-3],"split_indices":[17135,20772,19811,0,20763,21138,16694,0,0,0,0,20087,17384,15497,15369,17017,15639,15909,0,0,0,0,0,0,0,0,0,0,0],"split_type":[0,0,0,0,0,0,0,0,0,0,0,0,0,0,0,0,0,0,0,0,0,0,0,0,0,0,0,0,0],"sum_hessian":[1.5E2,1.1E1,1.39E2,2E0,9E0,1.3E2,9E0,1E0,1E0,1E0,8E0,1.04E2,2.6E1,6E0,3E0,9.4E1,1E1,1.2E1,1.4E1,1E0,5E0,1E0,2E0,1E1,8.4E1,5E0,5E0,1.1E1,1E0],"tree_param":{"num_deleted":"0","num_feature":"30720","num_nodes":"29","size_leaf_vector":"0"}},{"base_weights":[-1.0088247E0,-1.1280457E0,5.555719E-1,-1.828918E0,-9.719915E-1,-9.777392E-1,7.8384924E-1,-2.0760522E0,4.9333297E-2,-8.5214186E-1,-1.8528E0,1.0350733E0,2.7536577E-1,-2.5658762E0,-1.1826932E0,-3.2379496E-1,2.8164104E-1,-2.3575355E-1,-9.17587E-1,-7.05826E-1,-2.2410069E0,1.2499145E-1,4.384315E-1,-2.879966E0,-1.0606602E0,-1.056944E-1,-1.6291649E0,3.442935E-1,7.816805E-2,1.1497065E-1,-6.056395E-1,-9.536391E-1,1.8607333E-1,1.4851363E-1,2.7212441E-2],"categories":[],"categories_nodes":[],"categories_segments":[],"categories_sizes":[],"default_left":[1,1,1,1,1,0,1,1,1,1,1,0,1,1,1,0,1,1,1,0,0,1,0,0,0,0,0,0,0,0,0,0,0,0,0],"id":33,"left_children":[1,3,5,7,9,-1,11,13,15,17,19,-1,21,23,25,-1,27,29,31,-1,-1,33,-1,-1,-1,-1,-1,-1,-1,-1,-1,-1,-1,-1,-1],"loss_changes":[3.0468155E1,1.4519043E1,4.9666414E0,1.2171097E1,1.1511162E1,0E0,1.1201525E0,7.029907E0,4.3791628E-1,4.2613754E0,4.651924E0,0E0,6.780431E-2,3.5641556E0,4.636303E0,0E0,1.1331484E-2,1.6263664E0,4.156372E0,0E0,0E0,5.158484E-3,0E0,0E0,0E0,0E0,0E0,0E0,0E0,0E0,0E0,0E0,0E0,0E0,0E0],"parents":[2147483647,0,0,1,1,2,2,3,3,4,4,6,6,7,7,8,8,9,9,10,10,12,12,13,13,14,14,16,16,17,17,18,18,21,21],"right_children":[2,4,6,8,10,-1,12,14,16,18,20,-1,22,24,26,-1,28,30,32,-1,-1,34,-1,-1,-1,-1,-1,-1,-1,-1,-1,-1,-1,-1,-1],"split_conditions":[3.4315E3,8.1245E3,4.6245E3,4.1535E3,7.0435E3,-9.777392E-3,8.6885E3,1.3595E3,4.2905E3,4.6895E3,4.6385E3,1.0350732E-2,7.5445E3,9.3145E3,5.4648E4,-3.2379495E-3,7.3565E3,4.4995E3,6.344E3,-7.0582596E-3,-2.2410069E-2,5.5535E3,4.384315E-3,-2.8799659E-2,-1.0606602E-2,-1.0569439E-3,-1.6291648E-2,3.442935E-3,7.8168046E-4,1.1497064E-3,-6.056395E-3,-9.536391E-3,1.8607333E-3,1.4851362E-3,2.721244E-4],"split_indices":[22509,19896,15586,16325,21074,0,15783,19468,15406,17740,16534,0,15859,15483,20779,0,15367,16333,20111,0,0,15365,0,0,0,0,0,0,0,0,0,0,0,0,0],"split_type":[0,0,0,0,0,0,0,0,0,0,0,0,0,0,0,0,0,0,0,0,0,0,0,0,0,0,0,0,0,0,0,0,0,0,0],"sum_hessian":[1.59E2,1.48E2,1.1E1,2.5E1,1.23E2,1E0,1E1,2.2E1,3E0,1.1E2,1.3E1,6E0,4E0,1.3E1,9E0,1E0,2E0,1.1E1,9.9E1,4E0,9E0,3E0,1E0,1E1,3E0,3E0,6E0,1E0,1E0,6E0,5E0,9.6E1,3E0,2E0,1E0],"tree_param":{"num_deleted":"0","num_feature":"30720","num_nodes":"35","size_leaf_vector":"0"}},{"base_weights":[-9.8086697E-1,-1.0754782E0,5.080048E-1,-9.012169E-1,-1.8165945E0,9.125154E-1,-3.2689005E-1,-7.881271E-1,-1.6478431E0,-1.4415044E0,-3.1786897E0,1.0309169E0,1.0105324E-1,-4.539043E-1,2.7076393E-2,-1.7279376E-1,-9.1063505E-1,-9.388569E-1,-1.9084506E0,-1.5388949E0,3.5054278E-1,-5.2413946E-1,1.3037945E-1,-1.063759E0,-5.390522E-1,1.20232105E-1,-1.6236262E0],"categories":[],"categories_nodes":[],"categories_segments":[],"categories_sizes":[],"default_left":[1,1,1,1,1,1,1,1,1,1,0,0,0,0,0,1,1,0,0,1,0,0,0,0,0,0,0],"id":34,"left_children":[1,3,5,7,9,11,13,15,17,19,-1,-1,-1,-1,-1,21,23,-1,-1,25,-1,-1,-1,-1,-1,-1,-1],"loss_changes":[2.2521133E1,1.7347595E1,3.6755307E0,8.918022E0,9.2124405E0,5.6837034E-1,1.9212523E-1,7.908661E0,9.7974014E-1,4.5536003E0,0E0,0E0,0E0,0E0,0E0,2.0921907E0,4.4905167E0,0E0,0E0,3.2879753E0,0E0,0E0,0E0,0E0,0E0,0E0,0E0],"parents":[2147483647,0,0,1,1,2,2,3,3,4,4,5,5,6,6,7,7,8,8,9,9,15,15,16,16,19,19],"right_children":[2,4,6,8,10,12,14,16,18,20,-1,-1,-1,-1,-1,22,24,-1,-1,26,-1,-1,-1,-1,-1,-1,-1],"split_conditions":[3.2245E3,5.419E3,1.9205E3,6.1245E3,7.1065E3,5.1265E3,5.5535E3,2.0355E3,6.993E3,5.5415E3,-3.1786896E-2,1.0309169E-2,1.0105324E-3,-4.5390427E-3,2.7076394E-4,3.3135E3,4.18E3,-9.388569E-3,-1.9084506E-2,3.6085E3,3.5054279E-3,-5.2413945E-3,1.3037946E-3,-1.063759E-2,-5.3905216E-3,1.202321E-3,-1.6236262E-2],"split_indices":[20899,20087,18701,22025,18892,15575,15365,18737,16278,15909,0,0,0,0,0,19127,17987,0,0,16245,0,0,0,0,0,0,0],"split_type":[0,0,0,0,0,0,0,0,0,0,0,0,0,0,0,0,0,0,0,0,0,0,0,0,0,0,0],"sum_hessian":[1.55E2,1.46E2,9E0,1.2E2,2.6E1,6E0,3E0,1.06E2,1.4E1,2.2E1,4E0,5E0,1E0,2E0,1E0,1.8E1,8.8E1,5E0,9E0,2.1E1,1E0,8E0,1E1,6.1E1,2.7E1,1E0,2E1],"tree_param":{"num_deleted":"0","num_feature":"30720","num_nodes":"27","size_leaf_vector":"0"}},{"base_weights":[-9.714604E-1,-1.0753216E0,5.1425946E-1,-9.632904E-1,-2.078814E0,7.522217E-1,-9.3268156E-1,-8.649192E-1,-1.8995185E0,-2.9964316E0,-1.2360897E0,1.0261168E0,2.7310324E-1,-3.0379826E-1,-9.63562E-1,-1.9825761E0,-4.9294245E-1,9.048462E-2,-1.6280373E0,1.2355995E-1,4.3563816E-1,-5.6558922E-2,-1.0342045E0,-4.05888E-1,-1.0592575E0,-5.651245E-1,7.0085144E-1,5.866034E-1,-2.0949113E0,1.4678593E-1,2.6941001E-2],"categories":[],"categories_nodes":[],"categories_segments":[],"categories_sizes":[],"default_left":[1,1,1,1,1,1,0,1,1,0,1,0,1,1,1,0,0,1,1,1,0,0,0,0,0,0,0,0,0,0,0],"id":35,"left_children":[1,3,5,7,9,11,-1,13,15,-1,17,-1,19,21,23,-1,-1,25,27,29,-1,-1,-1,-1,-1,-1,-1,-1,-1,-1,-1],"loss_changes":[2.4933746E1,1.4636032E1,4.4890747E0,1.0790283E1,7.122322E0,1.0320458E0,0E0,6.5707474E0,4.246254E-1,0E0,4.8268433E0,0E0,6.770259E-2,3.5532103E0,5.173584E0,0E0,0E0,1.5965545E0,8.466587E0,5.0217174E-3,0E0,0E0,0E0,0E0,0E0,0E0,0E0,0E0,0E0,0E0,0E0],"parents":[2147483647,0,0,1,1,2,2,3,3,4,4,5,5,7,7,8,8,10,10,12,12,13,13,14,14,17,17,18,18,19,19],"right_children":[2,4,6,8,10,12,-1,14,16,-1,18,-1,20,22,24,-1,-1,26,28,30,-1,-1,-1,-1,-1,-1,-1,-1,-1,-1,-1],"split_conditions":[3.4315E3,7.6275E3,8.9915E3,7.9735E3,1.3595E3,8.6885E3,-9.326816E-3,2.2195E3,4.4645E3,-2.9964315E-2,5.4648E4,1.0261169E-2,7.5445E3,1.7495E3,3.8615E3,-1.982576E-2,-4.9294243E-3,5.19925E4,5.4648E4,5.5535E3,4.3563815E-3,-5.6558923E-4,-1.0342045E-2,-4.05888E-3,-1.0592575E-2,-5.651245E-3,7.0085144E-3,5.866034E-3,-2.0949112E-2,1.4678593E-3,2.6941E-4],"split_indices":[22509,16840,15813,18394,19468,15783,0,15436,15407,0,20772,0,15859,16474,16110,0,0,0,20779,15365,0,0,0,0,0,0,0,0,0,0,0],"split_type":[0,0,0,0,0,0,0,0,0,0,0,0,0,0,0,0,0,0,0,0,0,0,0,0,0,0,0,0,0,0,0],"sum_hessian":[1.57E2,1.47E2,1E1,1.34E2,1.3E1,9E0,1E0,1.23E2,1.1E1,5E0,8E0,5E0,4E0,1.9E1,1.04E2,1E1,1E0,2E0,6E0,3E0,1E0,1.5E1,4E0,1.6E1,8.8E1,1E0,1E0,1E0,5E0,2E0,1E0],"tree_param":{"num_deleted":"0","num_feature":"30720","num_nodes":"31","size_leaf_vector":"0"}},{"base_weights":[-1.0136228E0,6.847062E-1,-1.1162941E0,9.281827E-1,1.4831497E-1,-1.505673E0,-8.943617E-1,-1.6336464E0,3.424372E-1,-1.0304697E-2,-9.679104E-1,-1.2758347E0,-2.3603704E0,7.006636E-1,-1.052615E-2,1.7351186E-1,-3.7450293E-1,-8.738383E-1,-1.7523658E0,-1.3371832E0,3.436595E-1,-7.2982657E-1,-2.9396052E0,2.6806295E-2,-4.259552E-2,7.212758E-4,2.5972682E-1,1.0804289E-1,-9.151043E-1],"categories":[],"categories_nodes":[],"categories_segments":[],"categories_sizes":[],"default_left":[1,1,1,0,0,1,1,1,1,1,1,1,1,0,1,1,0,1,0,0,0,0,0,0,0,0,0,0,0],"id":36,"left_children":[1,3,5,-1,-1,7,9,11,13,15,17,19,21,-1,23,25,-1,27,-1,-1,-1,-1,-1,-1,-1,-1,-1,-1,-1],"loss_changes":[2.6396729E1,1.0377245E0,1.0665176E1,0E0,0E0,1.2148354E1,5.9069595E0,8.949951E0,5.1313853E-1,6.00546E-1,4.6675262E0,3.738205E0,1.1077141E1,0E0,4.733512E-3,8.919549E-2,0E0,3.2187767E0,0E0,0E0,0E0,0E0,0E0,0E0,0E0,0E0,0E0,0E0,0E0],"parents":[2147483647,0,0,1,1,2,2,5,5,6,6,7,7,8,8,9,9,10,10,11,11,12,12,14,14,15,15,17,17],"right_children":[2,4,6,-1,-1,8,10,12,14,16,18,20,22,-1,24,26,-1,28,-1,-1,-1,-1,-1,-1,-1,-1,-1,-1,-1],"split_conditions":[4.5245E3,5.8615E3,2.655E2,9.281827E-3,1.4831496E-3,4.6805E3,3.6765E3,7.1065E3,6.8605E3,5.1905E3,6.5935E3,5.5415E3,4.9565E3,7.006636E-3,5.343E4,2.7225E3,-3.7450292E-3,4.1605E3,-1.7523658E-2,-1.3371832E-2,3.4365947E-3,-7.2982656E-3,-2.9396052E-2,2.6806296E-4,-4.259552E-4,7.2127577E-6,2.5972682E-3,1.0804288E-3,-9.151043E-3],"split_indices":[18276,16527,17065,0,0,22151,16602,18892,15362,15397,16426,15909,20535,0,2,15736,0,17335,0,0,0,0,0,0,0,0,0,0,0],"split_type":[0,0,0,0,0,0,0,0,0,0,0,0,0,0,0,0,0,0,0,0,0,0,0,0,0,0,0,0,0],"sum_hessian":[1.46E2,8E0,1.38E2,5E0,3E0,4.8E1,9E1,4.5E1,3E0,7E0,8.3E1,3.2E1,1.3E1,1E0,2E0,5E0,2E0,7.6E1,7E0,3.1E1,1E0,4E0,9E0,1E0,1E0,2E0,3E0,3E0,7.3E1],"tree_param":{"num_deleted":"0","num_feature":"30720","num_nodes":"29","size_leaf_vector":"0"}},{"base_weights":[-9.5142835E-1,-1.0944618E0,2.3197865E-1,-8.917721E-1,-1.7126676E0,-7.9898316E-1,6.1065793E-1,-2.910479E0,-8.021061E-1,-7.2125506E-1,-2.013086E0,-2.4025837E-1,-8.7859976E-1,9.060701E-1,-4.3215595E-2,1.1230028E-1,-8.721399E-1,7.0403314E-1,-9.874202E-1,-8.472718E-1,-2.5430388E0,1.1815542E-1,9.8979E-1,-3.1096107E-1,1.0146104E-1,-6.9185235E-2,4.378379E-1,-9.0993124E-1,1.96201E-1,-1.2261777E0,3.419412E-1,4.1473042E-2,-1.1071236E0,1.17499866E-1,2.6672274E-2],"categories":[],"categories_nodes":[],"categories_segments":[],"categories_sizes":[],"default_left":[1,1,1,1,1,1,1,0,1,1,1,0,0,1,1,1,1,0,1,1,0,0,0,0,1,0,0,0,0,0,0,0,0,0,0],"id":37,"left_children":[1,3,5,7,9,11,13,-1,15,17,19,-1,-1,21,23,25,27,-1,29,31,-1,-1,-1,-1,33,-1,-1,-1,-1,-1,-1,-1,-1,-1,-1],"loss_changes":[2.564392E1,1.5263428E1,7.12477E0,1.6309456E1,8.078888E0,1.1327982E-2,2.5502644E0,0E0,6.501877E0,4.1094356E0,1.267318E1,0E0,0E0,4.7672844E-1,2.2523302E-1,5.029349E-1,3.9333115E0,0E0,2.9584408E0,2.124394E0,0E0,0E0,0E0,0E0,1.6641058E-3,0E0,0E0,0E0,0E0,0E0,0E0,0E0,0E0,0E0,0E0],"parents":[2147483647,0,0,1,1,2,2,3,3,4,4,5,5,6,6,8,8,9,9,10,10,13,13,14,14,15,15,16,16,18,18,19,19,24,24],"right_children":[2,4,6,8,10,12,14,-1,16,18,20,-1,-1,22,24,26,28,-1,30,32,-1,-1,-1,-1,34,-1,-1,-1,-1,-1,-1,-1,-1,-1,-1],"split_conditions":[4.5695E3,5.8935E3,5.8575E3,5.1625E3,8.2785E3,4.105E3,2.5205E3,-2.910479E-2,4.332E3,5.4648E4,6.1275E3,-2.4025836E-3,-8.7859975E-3,5.1835E3,4.2905E3,2.5545E3,6.349E3,7.040331E-3,4.2895E3,1.248E3,-2.5430389E-2,1.1815542E-3,9.8979E-3,-3.1096106E-3,5.5535E3,-6.9185236E-4,4.378379E-3,-9.099312E-3,1.9620098E-3,-1.2261776E-2,3.419412E-3,4.147304E-4,-1.1071236E-2,1.1749986E-3,2.6672272E-4],"split_indices":[19936,17560,21531,16129,16045,15362,16694,0,18401,20772,17748,0,0,15497,15406,16089,20111,0,15406,15395,0,0,0,0,15365,0,0,0,0,0,0,0,0,0,0],"split_type":[0,0,0,0,0,0,0,0,0,0,0,0,0,0,0,0,0,0,0,0,0,0,0,0,0,0,0,0,0,0,0,0,0,0,0],"sum_hessian":[1.49E2,1.33E2,1.6E1,1.02E2,3.1E1,4E0,1.2E1,3E0,9.9E1,8E0,2.3E1,1E0,3E0,8E0,4E0,7E0,9.2E1,1E0,7E0,8E0,1.5E1,1E0,7E0,1E0,3E0,5E0,2E0,8.9E1,3E0,6E0,1E0,2E0,6E0,2E0,1E0],"tree_param":{"num_deleted":"0","num_feature":"30720","num_nodes":"35","size_leaf_vector":"0"}},{"base_weights":[-1.0587287E0,-2.5586028E0,-9.098442E-1,-1.043707E0,4.7113833E-1,-1.5309227E0,-8.170793E-1,6.8274474E-1,-9.282661E-1,-7.669817E-1,-2.0400717E0,-9.803926E-2,-9.155843E-1,1.0040159E0,2.4768282E-1,-2.9668754E-1,-9.5378023E-1,-2.896281E0,-1.4050899E0,-5.060855E-1,3.2634687E-1,5.0991528E-2,-9.731916E-1,1.2767135E-1,4.2387012E-1],"categories":[],"categories_nodes":[],"categories_segments":[],"categories_sizes":[],"default_left":[1,0,1,1,1,1,1,1,0,1,1,1,1,0,1,0,0,0,0,0,0,0,0,0,0],"id":38,"left_children":[1,-1,3,5,7,9,11,13,-1,15,17,19,21,-1,23,-1,-1,-1,-1,-1,-1,-1,-1,-1,-1],"loss_changes":[2.8711868E1,0E0,2.4154083E1,1.1667854E1,4.1872444E0,1.2437859E1,5.7182236E0,1.2888241E0,0E0,1.1226292E0,7.347687E0,2.0700204E0,4.058712E0,0E0,7.2750896E-2,0E0,0E0,0E0,0E0,0E0,0E0,0E0,0E0,0E0,0E0],"parents":[2147483647,0,0,2,2,3,3,4,4,5,5,6,6,7,7,9,9,10,10,11,11,12,12,14,14],"right_children":[2,-1,4,6,8,10,12,14,-1,16,18,20,22,-1,24,-1,-1,-1,-1,-1,-1,-1,-1,-1,-1],"split_conditions":[4.5455E3,-2.5586028E-2,2.9165E3,2.655E2,8.9915E3,5.995E2,2.1315E3,7.3965E3,-9.282661E-3,3.8755E3,8.5245E3,3.203E3,7.71E3,1.0040159E-2,7.9315E3,-2.9668754E-3,-9.537802E-3,-2.896281E-2,-1.4050898E-2,-5.060855E-3,3.2634686E-3,5.099153E-4,-9.731916E-3,1.2767134E-3,4.238701E-3],"split_indices":[17135,0,22534,17065,15813,19344,19639,16545,0,16110,16531,16711,16691,0,15887,0,0,0,0,0,0,0,0,0,0],"split_type":[0,0,0,0,0,0,0,0,0,0,0,0,0,0,0,0,0,0,0,0,0,0,0,0,0],"sum_hessian":[1.38E2,1.1E1,1.27E2,1.16E2,1.1E1,3.5E1,8.1E1,1E1,1E0,1.5E1,2E1,1E1,7.1E1,5E0,5E0,5E0,1E1,7E0,1.3E1,5E0,5E0,4E0,6.7E1,4E0,1E0],"tree_param":{"num_deleted":"0","num_feature":"30720","num_nodes":"25","size_leaf_vector":"0"}},{"base_weights":[-9.967054E-1,-1.099858E0,2.225779E-1,-9.127317E-1,-1.7016245E0,1.0781106E0,-2.774489E-1,-2.0099552E0,-7.733316E-1,-1.8138434E0,2.5179029E-2,3.599156E-1,-8.593236E-1,-2.709141E0,-1.1235167E0,-1.8298274E-2,-8.208253E-1,-7.2696865E-1,-1.9948975E0,3.4014934E-1,-3.023808E-1,9.521788E-2,5.046415E-1,-1.1121303E0,7.595149E-2,-2.866794E-1,-1.2152097E0,1.563863E-1,-3.033398E-1,-8.83803E-1,-1.20837316E-1,-3.5564452E-2,-8.5813653E-1,-1.0019039E0,-2.1836147E0,1.1692628E-1,2.5900543E-2],"categories":[],"categories_nodes":[],"categories_segments":[],"categories_sizes":[],"default_left":[1,1,1,1,1,0,1,1,1,1,1,1,1,0,1,1,1,1,1,0,0,1,0,0,0,0,0,0,0,0,0,0,0,0,0,0,0],"id":39,"left_children":[1,3,5,7,9,-1,11,13,15,17,19,21,23,-1,25,27,29,31,33,-1,-1,35,-1,-1,-1,-1,-1,-1,-1,-1,-1,-1,-1,-1,-1,-1,-1],"loss_changes":[1.9865265E1,1.4662201E1,5.860381E0,1.5576393E1,6.440407E0,0E0,3.647081E0,4.393654E0,3.6067696E0,4.6500473E0,4.1236952E-1,1.434921E-1,1.2666862E0,0E0,1.8875027E-1,3.959847E-1,4.081154E0,5.1362085E-1,2.6845016E0,0E0,0E0,1.4858525E-3,0E0,0E0,0E0,0E0,0E0,0E0,0E0,0E0,0E0,0E0,0E0,0E0,0E0,0E0,0E0],"parents":[2147483647,0,0,1,1,2,2,3,3,4,4,6,6,7,7,8,8,9,9,10,10,11,11,12,12,14,14,15,15,16,16,17,17,18,18,21,21],"right_children":[2,4,6,8,10,-1,12,14,16,18,20,22,24,-1,26,28,30,32,34,-1,-1,36,-1,-1,-1,-1,-1,-1,-1,-1,-1,-1,-1,-1,-1,-1,-1],"split_conditions":[2.9165E3,5.8935E3,7.1235E3,5.199E3,5.5175E3,1.0781106E-2,3.4435E3,5.3795E3,3.7875E3,1.7145E3,7.3565E3,7.9315E3,6.444E3,-2.709141E-2,3.3345E3,4.133E3,5.6715E3,1.254E3,4.4745E3,3.4014934E-3,-3.023808E-3,5.5535E3,5.0464147E-3,-1.1121303E-2,7.5951486E-4,-2.866794E-3,-1.2152097E-2,1.563863E-3,-3.033398E-3,-8.83803E-3,-1.2083731E-3,-3.5564453E-4,-8.581365E-3,-1.0019039E-2,-2.1836147E-2,1.1692628E-3,2.5900544E-4],"split_indices":[22534,17560,19725,16129,16195,0,16214,15439,18045,19338,15367,15887,15375,0,15363,15360,20807,15395,15806,0,0,15365,0,0,0,0,0,0,0,0,0,0,0,0,0,0,0],"split_type":[0,0,0,0,0,0,0,0,0,0,0,0,0,0,0,0,0,0,0,0,0,0,0,0,0,0,0,0,0,0,0,0,0,0,0,0,0],"sum_hessian":[1.55E2,1.43E2,1.2E1,1.11E2,3.2E1,4E0,8E0,1.1E1,1E2,3E1,2E0,4E0,4E0,5E0,6E0,6E0,9.4E1,5E0,2.5E1,1E0,1E0,2E0,2E0,3E0,1E0,1E0,5E0,4E0,2E0,8.6E1,8E0,1E0,4E0,5E0,2E1,1E0,1E0],"tree_param":{"num_deleted":"0","num_feature":"30720","num_nodes":"37","size_leaf_vector":"0"}},{"base_weights":[-9.4791335E-1,-1.0748456E0,4.8220083E-1,-8.6857104E-1,-1.7953571E0,8.875266E-1,-3.438257E-1,-2.3332202E-1,-1.0431368E0,-1.9075042E0,-1.5019812E-1,1.1634165E-1,9.69382E-1,-8.596763E-1,2.8663346E-1,2.0782597E-2,-6.8737274E-1,-9.498044E-1,-2.1292677E0,-1.1635005E0,-2.1469307E0,-3.008689E-1,7.557173E-2,-1.332901E-1,4.1721508E-1,-3.0249643E-1,-7.541236E-1,-9.9637055E-1,1.9568607E-1,-4.5510685E-1,-2.3730783E0,-1.2302331E0,-2.5459037E0],"categories":[],"categories_nodes":[],"categories_segments":[],"categories_sizes":[],"default_left":[1,1,1,1,1,1,1,1,1,1,1,0,0,0,0,1,1,1,1,0,1,0,0,0,0,0,0,0,0,0,0,0,0],"id":40,"left_children":[1,3,5,7,9,11,13,15,17,19,21,-1,-1,-1,-1,23,25,27,29,-1,31,-1,-1,-1,-1,-1,-1,-1,-1,-1,-1,-1,-1],"loss_changes":[2.792894E1,1.9099228E1,4.657682E0,1.1954811E1,5.2484894E0,4.5535135E-1,1.8725256E0,2.8986955E0,6.695526E0,2.4898071E0,1.2478795E-1,0E0,0E0,0E0,0E0,1.0939608E0,3.0975342E-3,4.515602E0,1.3690662E0,0E0,4.1826935E0,0E0,0E0,0E0,0E0,0E0,0E0,0E0,0E0,0E0,0E0,0E0,0E0],"parents":[2147483647,0,0,1,1,2,2,3,3,4,4,5,5,6,6,7,7,8,8,9,9,10,10,15,15,16,16,17,17,18,18,20,20],"right_children":[2,4,6,8,10,12,14,16,18,20,22,-1,-1,-1,-1,24,26,28,30,-1,32,-1,-1,-1,-1,-1,-1,-1,-1,-1,-1,-1,-1],"split_conditions":[4.2215E3,6.1245E3,4.9945E3,4.6625E3,3.8405E3,4.6265E3,5.541E3,4.6485E3,5.3235E3,4.708E3,3.2725E3,1.1634164E-3,9.69382E-3,-8.596763E-3,2.8663345E-3,8.4805E3,4.58E3,6.35E3,5.063E3,-1.16350055E-2,3.358E3,-3.008689E-3,7.557173E-4,-1.332901E-3,4.1721505E-3,-3.0249644E-3,-7.541236E-3,-9.963705E-3,1.9568608E-3,-4.5510684E-3,-2.3730783E-2,-1.2302331E-2,-2.5459036E-2],"split_indices":[16220,22025,20149,18574,15757,15586,15909,21550,20110,17354,15369,0,0,0,0,16467,15760,20111,15365,0,16295,0,0,0,0,0,0,0,0,0,0,0,0],"split_type":[0,0,0,0,0,0,0,0,0,0,0,0,0,0,0,0,0,0,0,0,0,0,0,0,0,0,0,0,0,0,0,0,0],"sum_hessian":[1.5E2,1.38E2,1.2E1,1.09E2,2.9E1,8E0,4E0,2.4E1,8.5E1,2.7E1,2E0,1E0,7E0,2E0,2E0,1.6E1,8E0,8E1,5E0,8E0,1.9E1,1E0,1E0,1.2E1,4E0,2E0,6E0,7.7E1,3E0,1E0,4E0,7E0,1.2E1],"tree_param":{"num_deleted":"0","num_feature":"30720","num_nodes":"33","size_leaf_vector":"0"}},{"base_weights":[-1.0389574E0,-1.95536E0,-9.398959E-1,-4.808559E-1,-2.1610394E0,-1.025614E0,2.7700004E-1,-1.3417248E0,6.204409E-1,-9.165777E-1,-1.8713759E0,5.466399E-1,-1.0748794E0,-8.391078E-1,-2.2228308E0,-4.9359873E-1,-2.2022607E0,7.559776E-1,9.597342E-2,-9.4089854E-1,-4.2242986E-1,-2.547651E0,-2.9936457E-1,2.0924151E-2,1.1401512E-1],"categories":[],"categories_nodes":[],"categories_segments":[],"categories_sizes":[],"default_left":[1,1,1,1,0,1,1,0,0,1,1,1,0,1,1,0,0,0,1,0,0,0,0,0,0],"id":41,"left_children":[1,3,5,7,-1,9,11,-1,-1,13,15,17,-1,19,21,-1,-1,-1,23,-1,-1,-1,-1,-1,-1],"loss_changes":[1.2051514E1,3.2066994E0,1.4887482E1,3.676677E0,0E0,1.0365402E1,4.232778E0,0E0,0E0,1.0075851E1,5.295368E0,7.765193E-1,0E0,4.3953094E0,2.9860077E0,0E0,0E0,0E0,3.030397E-3,0E0,0E0,0E0,0E0,0E0,0E0],"parents":[2147483647,0,0,1,1,2,2,3,3,5,5,6,6,9,9,10,10,11,11,13,13,14,14,18,18],"right_children":[2,4,6,8,-1,10,12,-1,-1,14,16,18,-1,20,22,-1,-1,-1,24,-1,-1,-1,-1,-1,-1],"split_conditions":[4.5455E3,5.4648E4,7.5055E3,5.19925E4,-2.1610392E-2,7.0435E3,6.114E3,-1.3417248E-2,6.204409E-3,7.7025E3,4.4055E3,2.1135E3,-1.0748794E-2,4.0765E3,7.5945E3,-4.9359873E-3,-2.2022607E-2,7.5597754E-3,6.1125E3,-9.408985E-3,-4.2242985E-3,-2.547651E-2,-2.9936456E-3,2.0924151E-4,1.1401512E-3],"split_indices":[17135,20779,19756,0,0,21074,15374,0,0,20196,15847,16255,0,16599,15432,0,0,0,15374,0,0,0,0,0,0],"split_type":[0,0,0,0,0,0,0,0,0,0,0,0,0,0,0,0,0,0,0,0,0,0,0,0,0],"sum_hessian":[1.52E2,1.3E1,1.39E2,2E0,1.1E1,1.3E2,9E0,1E0,1E0,1.17E2,1.3E1,8E0,1E0,1.12E2,5E0,3E0,1E1,5E0,3E0,8.9E1,2.3E1,4E0,1E0,1E0,2E0],"tree_param":{"num_deleted":"0","num_feature":"30720","num_nodes":"25","size_leaf_vector":"0"}},{"base_weights":[-9.169668E-1,-1.0333652E0,4.3395215E-1,-8.73476E-1,-1.7897544E0,-8.403175E-1,7.4203E-1,-7.073647E-1,-1.5432779E0,-2.005798E0,-2.0808637E-1,8.811304E-1,7.738551E-2,-1.39737E-2,-7.9487413E-1,-9.2300844E-1,-1.9494075E0,-1.5909154E0,-3.0152392E0,-4.9732968E-1,3.298218E-1,1.284982E-1,9.5914716E-1,9.525871E-2,2.0819545E-2,4.362582E-1,-2.1252413E-1,-3.27279E-1,-9.037576E-1,-3.7221223E-1,-1.0040507E0,-1.9049609E0,-8.7014174E-1],"categories":[],"categories_nodes":[],"categories_segments":[],"categories_sizes":[],"default_left":[1,1,1,1,1,0,1,1,1,1,1,1,1,1,1,1,0,1,0,0,0,0,0,0,0,0,0,0,0,0,0,0,0],"id":42,"left_children":[1,3,5,7,9,-1,11,13,15,17,19,21,23,25,27,29,-1,31,-1,-1,-1,-1,-1,-1,-1,-1,-1,-1,-1,-1,-1,-1,-1],"loss_changes":[2.482138E1,1.5730911E1,5.727007E0,1.2259735E1,7.7836456E0,0E0,9.4878864E-1,5.935364E0,3.994606E0,3.997795E0,7.8637546E-1,4.052124E-1,1.0498017E-3,1.1654403E0,4.133686E0,1.17295265E-1,0E0,2.190464E0,0E0,0E0,0E0,0E0,0E0,0E0,0E0,0E0,0E0,0E0,0E0,0E0,0E0,0E0,0E0],"parents":[2147483647,0,0,1,1,2,2,3,3,4,4,6,6,7,7,8,8,9,9,10,10,11,11,12,12,13,13,14,14,15,15,17,17],"right_children":[2,4,6,8,10,-1,12,14,16,18,20,22,24,26,28,30,-1,32,-1,-1,-1,-1,-1,-1,-1,-1,-1,-1,-1,-1,-1,-1,-1],"split_conditions":[2.917E3,5.419E3,3.4875E3,6.9935E3,4.5725E3,-8.403175E-3,2.1135E3,4.1495E3,6.3435E3,7.1065E3,6.394E3,5.1835E3,5.5535E3,4.5735E3,3.071E3,4.866E3,-1.9494073E-2,5.4648E4,-3.0152392E-2,-4.9732965E-3,3.298218E-3,1.284982E-3,9.591471E-3,9.525871E-4,2.0819544E-4,4.3625818E-3,-2.1252413E-3,-3.27279E-3,-9.037576E-3,-3.7221222E-3,-1.0040507E-2,-1.904961E-2,-8.701418E-3],"split_indices":[22534,20087,19521,21138,19936,0,16255,17017,16219,18892,15372,15497,15365,20253,16308,15417,0,20766,0,0,0,0,0,0,0,0,0,0,0,0,0,0,0],"split_type":[0,0,0,0,0,0,0,0,0,0,0,0,0,0,0,0,0,0,0,0,0,0,0,0,0,0,0,0,0,0,0,0,0],"sum_hessian":[1.54E2,1.42E2,1.2E1,1.19E2,2.3E1,2E0,1E1,9.7E1,2.2E1,2E1,3E0,8E0,2E0,1.1E1,8.6E1,1E1,1.2E1,1.6E1,4E0,2E0,1E0,1E0,7E0,1E0,1E0,3E0,8E0,1.7E1,6.9E1,2E0,8E0,1E1,6E0],"tree_param":{"num_deleted":"0","num_feature":"30720","num_nodes":"33","size_leaf_vector":"0"}},{"base_weights":[-9.654752E-1,-2.1173737E0,-8.598448E-1,-3.9391658E-1,-2.4226735E0,4.3162858E-1,-9.733164E-1,-1.3304974E0,7.3962253E-1,-6.6446686E-1,-2.5442002E0,7.134531E-1,-3.1038377E-1,-8.5255694E-1,-1.772895E0,-1.3495414E0,-2.916606E0,1.4842542E-1,8.53686E-1,-4.276553E-1,2.0715445E-2,-1.2449843E-1,-9.450348E-1,-2.323209E0,-1.3115515E0,2.7841568E-1,-4.6148595E-1,-1.8012586E0,-8.6211115E-1],"categories":[],"categories_nodes":[],"categories_segments":[],"categories_sizes":[],"default_left":[1,1,1,1,1,1,1,0,0,0,1,1,1,1,1,0,0,0,0,0,0,1,1,0,0,0,0,0,0],"id":43,"left_children":[1,3,5,7,9,11,13,-1,-1,-1,15,17,19,21,23,-1,-1,-1,-1,-1,-1,25,27,-1,-1,-1,-1,-1,-1],"loss_changes":[1.6552399E1,5.359722E0,2.0936493E1,4.1690187E0,4.4615555E-1,2.7308514E0,1.0944313E1,0E0,0E0,0E0,6.799698E-2,5.8641005E-1,1.6417316E-1,7.557884E0,1.0151329E0,0E0,0E0,0E0,0E0,0E0,0E0,2.0293632E0,5.6182404E0,0E0,0E0,0E0,0E0,0E0,0E0],"parents":[2147483647,0,0,1,1,2,2,3,3,4,4,5,5,6,6,10,10,11,11,12,12,13,13,14,14,21,21,22,22],"right_children":[2,4,6,8,10,12,14,-1,-1,-1,16,18,20,22,24,-1,-1,-1,-1,-1,-1,26,28,-1,-1,-1,-1,-1,-1],"split_conditions":[4.5455E3,5.4648E4,2.6475E3,5.19925E4,5.4648E4,1.8325E3,5.905E3,-1.3304974E-2,7.3962254E-3,-6.6446685E-3,3.5815E3,7.9315E3,3.274E3,2.1335E3,4.754E3,-1.3495414E-2,-2.916606E-2,1.4842541E-3,8.536859E-3,-4.276553E-3,2.0715444E-4,4.8045E3,3.7285E3,-2.323209E-2,-1.3115514E-2,2.7841567E-3,-4.6148594E-3,-1.8012585E-2,-8.6211115E-3],"split_indices":[17135,20772,19597,0,20763,16659,17560,0,0,0,15617,15887,15369,19639,16440,0,0,0,0,0,0,15850,19140,0,0,0,0,0,0],"split_type":[0,0,0,0,0,0,0,0,0,0,0,0,0,0,0,0,0,0,0,0,0,0,0,0,0,0,0,0,0],"sum_hessian":[1.5E2,1.1E1,1.39E2,2E0,9E0,1.1E1,1.28E2,1E0,1E0,1E0,8E0,8E0,3E0,1.13E2,1.5E1,3E0,5E0,2E0,6E0,2E0,1E0,1.3E1,1E2,5E0,1E1,6E0,7E0,7E0,9.3E1],"tree_param":{"num_deleted":"0","num_feature":"30720","num_nodes":"29","size_leaf_vector":"0"}},{"base_weights":[-9.348012E-1,-9.9813724E-1,8.2551247E-1,-8.757999E-1,-1.7195845E0,9.529989E-1,9.4040275E-2,-1.9122521E0,-8.024606E-1,-1.1277727E0,-2.7420976E0,2.6163671E-2,-8.6697596E-1,-1.0424125E-1,-1.3749688E0,-8.612333E-1,-3.3221967E0,2.802492E-1,-2.8397173E-1,-2.0796584E-1,-9.410159E-1,-5.6316996E-1,6.3627243E-1,-1.6575025E-1,-1.759625E0],"categories":[],"categories_nodes":[],"categories_segments":[],"categories_sizes":[],"default_left":[1,1,1,1,1,0,0,0,1,1,1,1,1,1,1,0,0,0,0,0,0,0,0,0,0],"id":44,"left_children":[1,3,5,7,9,-1,-1,-1,11,13,15,17,19,21,23,-1,-1,-1,-1,-1,-1,-1,-1,-1,-1],"loss_changes":[1.832811E1,1.19095E1,4.6989632E-1,8.499168E0,9.615387E0,0E0,0E0,0E0,6.705055E0,3.651865E0,4.776428E0,8.675921E-1,5.464302E0,1.7177014E0,5.289942E0,0E0,0E0,0E0,0E0,0E0,0E0,0E0,0E0,0E0,0E0],"parents":[2147483647,0,0,1,1,2,2,3,3,4,4,8,8,9,9,10,10,11,11,12,12,13,13,14,14],"right_children":[2,4,6,8,10,-1,-1,-1,12,14,16,18,20,22,24,-1,-1,-1,-1,-1,-1,-1,-1,-1,-1],"split_conditions":[5.7205E3,7.563E3,5.1265E3,2.4655E3,4.5355E3,9.529988E-3,9.4040274E-4,-1.912252E-2,3.5325E3,5.4648E4,4.961E3,3.277E3,3.916E3,5.19925E4,5.4648E4,-8.612333E-3,-3.3221968E-2,2.8024921E-3,-2.8397173E-3,-2.0796582E-3,-9.410159E-3,-5.631699E-3,6.362724E-3,-1.6575025E-3,-1.7596249E-2],"split_indices":[16080,16840,15575,17111,15455,0,0,0,18660,20779,17625,17446,18452,0,20772,0,0,0,0,0,0,0,0,0,0],"split_type":[0,0,0,0,0,0,0,0,0,0,0,0,0,0,0,0,0,0,0,0,0,0,0,0,0],"sum_hessian":[1.56E2,1.51E2,5E0,1.31E2,2E1,4E0,1E0,7E0,1.24E2,1.4E1,6E0,9E0,1.15E2,3E0,1.1E1,2E0,4E0,5E0,4E0,1.2E1,1.03E2,2E0,1E0,3E0,8E0],"tree_param":{"num_deleted":"0","num_feature":"30720","num_nodes":"25","size_leaf_vector":"0"}},{"base_weights":[-8.973114E-1,-9.922921E-1,2.749498E-1,-8.243646E-1,-1.6703194E0,1.012115E0,-3.122928E-1,-1.8792488E-1,-9.316788E-1,-4.3665087E-1,-1.74553E0,3.590538E-1,-1.0734029E0,1.6813347E-1,-6.0222673E-1,-1.9921253E0,-8.587352E-1,-7.4475706E-1,-1.8871967E0,9.844369E-2,4.999793E-1,-7.724904E-2,3.8549373E-1,-7.353002E-1,-9.097978E-2,-1.7551816E-1,-2.320343E0,-4.058424E-1,-9.3388283E-1,-2.1242316E0,-1.2824502E0,1.3181865E-1,1.5846878E-2],"categories":[],"categories_nodes":[],"categories_segments":[],"categories_sizes":[],"default_left":[1,1,1,1,1,0,1,1,1,0,1,1,0,1,1,1,1,0,1,1,0,0,0,0,0,0,0,0,0,0,0,0,0],"id":45,"left_children":[1,3,5,7,9,-1,11,13,15,-1,17,19,-1,21,23,25,27,-1,29,31,-1,-1,-1,-1,-1,-1,-1,-1,-1,-1,-1,-1,-1],"loss_changes":[1.8421616E1,1.5815811E1,5.943709E0,8.2257E0,1.9285812E0,0E0,4.4731584E0,2.9040515E0,6.411331E0,0E0,2.4224548E0,1.3441318E-1,0E0,6.164795E-1,5.45403E-1,3.1701946E0,3.024376E0,0E0,5.7273865E-1,6.1810818E-3,0E0,0E0,0E0,0E0,0E0,0E0,0E0,0E0,0E0,0E0,0E0,0E0,0E0],"parents":[2147483647,0,0,1,1,2,2,3,3,4,4,6,6,7,7,8,8,10,10,11,11,13,13,14,14,15,15,16,16,18,18,19,19],"right_children":[2,4,6,8,10,-1,12,14,16,-1,18,20,-1,22,24,26,28,-1,30,32,-1,-1,-1,-1,-1,-1,-1,-1,-1,-1,-1,-1,-1],"split_conditions":[2.9175E3,6.5095E3,7.1235E3,2.0355E3,6.1495E3,1.012115E-2,3.4435E3,3.7265E3,3.8765E3,-4.3665087E-3,8.4445E3,7.9315E3,-1.0734028E-2,7.1175E3,4.4605E3,1.343E3,1.8285E3,-7.4475706E-3,5.3685E3,5.5535E3,4.9997927E-3,-7.724904E-4,3.8549372E-3,-7.3530017E-3,-9.0979773E-4,-1.7551815E-3,-2.3203429E-2,-4.058424E-3,-9.338828E-3,-2.1242315E-2,-1.2824502E-2,1.3181865E-3,1.5846879E-4],"split_indices":[22534,22030,19725,18737,15852,0,16214,16328,16268,0,21063,15887,0,17298,15613,15395,15761,0,16296,15365,0,0,0,0,0,0,0,0,0,0,0,0,0],"split_type":[0,0,0,0,0,0,0,0,0,0,0,0,0,0,0,0,0,0,0,0,0,0,0,0,0,0,0,0,0,0,0,0,0],"sum_hessian":[1.62E2,1.5E2,1.2E1,1.22E2,2.8E1,5E0,7E0,1.8E1,1.04E2,2E0,2.6E1,4E0,3E0,1E1,8E0,5E0,9.9E1,4E0,2.2E1,2E0,2E0,5E0,5E0,6E0,2E0,1E0,4E0,1.5E1,8.4E1,1.4E1,8E0,1E0,1E0],"tree_param":{"num_deleted":"0","num_feature":"30720","num_nodes":"33","size_leaf_vector":"0"}},{"base_weights":[-9.349507E-1,-1.0217489E0,3.6503905E-1,-1.7309375E0,-8.6621207E-1,6.402568E-1,-1.0559605E0,2.1307097E-1,-2.018799E0,-7.3322374E-1,-1.5495249E0,1.1782941E-1,8.8183236E-1,5.269315E-1,-3.642553E-1,-1.4249184E0,-2.8057406E0,-1.0859435E-1,-8.348263E-1,-5.92473E-1,-1.7806487E0,1.4659412E-1,1.5767634E-2,-6.757756E-1,-1.7660228E0,-1.1379718E0,-3.1720014E0,2.6931688E-1,-4.729313E-1,-2.73431E-1,-9.4167286E-1,-3.0332953E-2,-7.2542477E-1],"categories":[],"categories_nodes":[],"categories_segments":[],"categories_sizes":[],"default_left":[1,1,1,1,1,1,0,1,1,1,1,1,0,0,0,1,1,1,1,1,0,0,0,0,0,0,0,0,0,0,0,0,0],"id":46,"left_children":[1,3,5,7,9,11,-1,13,15,17,19,21,-1,-1,-1,23,25,27,29,31,-1,-1,-1,-1,-1,-1,-1,-1,-1,-1,-1,-1,-1],"loss_changes":[1.707283E1,1.3833023E1,4.5869303E0,1.3860687E1,9.405075E0,1.0319455E0,0E0,9.167373E-1,5.8163834E0,6.192276E0,2.9265747E0,9.431668E-3,0E0,0E0,0E0,2.3840675E0,1.2770615E0,2.1926737E0,4.841076E0,3.5168314E-1,0E0,0E0,0E0,0E0,0E0,0E0,0E0,0E0,0E0,0E0,0E0,0E0,0E0],"parents":[2147483647,0,0,1,1,2,2,3,3,4,4,5,5,7,7,8,8,9,9,10,10,11,11,15,15,16,16,17,17,18,18,19,19],"right_children":[2,4,6,8,10,12,-1,14,16,18,20,22,-1,-1,-1,24,26,28,30,32,-1,-1,-1,-1,-1,-1,-1,-1,-1,-1,-1,-1,-1],"split_conditions":[4.8505E3,8.1245E3,6.114E3,4.5105E3,5.8935E3,7.9315E3,-1.0559605E-2,4.8255E3,8.4495E3,3.2415E3,5.1825E3,5.5535E3,8.818324E-3,5.269315E-3,-3.642553E-3,5.4648E4,4.4025E3,6.062E3,3.916E3,5.066E3,-1.7806487E-2,1.4659412E-3,1.5767633E-4,-6.7577558E-3,-1.7660229E-2,-1.1379717E-2,-3.1720012E-2,2.6931688E-3,-4.729313E-3,-2.73431E-3,-9.416728E-3,-3.0332952E-4,-7.2542476E-3],"split_indices":[19067,19896,15374,18332,17560,15887,0,15371,20347,16238,16997,15365,0,0,0,20772,15378,20329,18452,15397,0,0,0,0,0,0,0,0,0,0,0,0,0],"split_type":[0,0,0,0,0,0,0,0,0,0,0,0,0,0,0,0,0,0,0,0,0,0,0,0,0,0,0,0,0,0,0,0,0],"sum_hessian":[1.47E2,1.38E2,9E0,2.3E1,1.15E2,8E0,1E0,3E0,2E1,9.8E1,1.7E1,3E0,5E0,2E0,1E0,1.3E1,7E0,1.4E1,8.4E1,4E0,1.3E1,2E0,1E0,5E0,8E0,2E0,5E0,7E0,7E0,1.4E1,7E1,1E0,3E0],"tree_param":{"num_deleted":"0","num_feature":"30720","num_nodes":"33","size_leaf_vector":"0"}},{"base_weights":[-9.562311E-1,-2.1605027E0,-8.5894877E-1,-2.5427608E0,-7.936107E-1,-8.5142136E-1,2.8114548E-1,-7.594314E-1,-1.536712E0,7.509944E-1,-6.365354E-4,1.8562876E-1,-8.103531E-1,-6.378562E-1,-1.9223545E0,-3.2820168E-1,1.3051683E-1],"categories":[],"categories_nodes":[],"categories_segments":[],"categories_sizes":[],"default_left":[1,0,1,0,1,1,1,1,1,0,1,0,0,0,0,0,0],"id":47,"left_children":[1,-1,3,-1,5,7,9,11,13,-1,15,-1,-1,-1,-1,-1,-1],"loss_changes":[1.6420303E1,0E0,1.4044533E1,0E0,9.062164E0,7.3433456E0,1.0596378E0,5.973427E0,3.9733658E0,0E0,3.0060345E-1,0E0,0E0,0E0,0E0,0E0,0E0],"parents":[2147483647,0,0,2,2,4,4,5,5,6,6,7,7,8,8,10,10],"right_children":[2,-1,4,-1,6,8,10,12,14,-1,16,-1,-1,-1,-1,-1,-1],"split_conditions":[4.5445E3,-2.1605026E-2,5.36E2,-2.5427608E-2,9.1445E3,7.0435E3,9.497E3,3.5315E3,4.8445E3,7.5099436E-3,7.3565E3,1.8562875E-3,-8.103531E-3,-6.3785617E-3,-1.9223545E-2,-3.2820168E-3,1.3051683E-3],"split_indices":[17135,0,16254,0,17478,21074,15452,18660,17201,0,15367,0,0,0,0,0,0],"split_type":[0,0,0,0,0,0,0,0,0,0,0,0,0,0,0,0,0],"sum_hessian":[1.55E2,1E1,1.45E2,4E0,1.41E2,1.34E2,7E0,1.2E2,1.4E1,2E0,5E0,6E0,1.14E2,5E0,9E0,1E0,4E0],"tree_param":{"num_deleted":"0","num_feature":"30720","num_nodes":"17","size_leaf_vector":"0"}},{"base_weights":[-9.0127677E-1,-1.0177637E0,2.6140597E-1,-8.175969E-1,-1.7320406E0,-7.323904E-1,5.9902227E-1,-1.9688923E0,-7.2793365E-1,3.2612634E-1,-1.8203478E0,8.677741E-1,-8.8237E-2,-4.601151E-1,-2.1436694E0,1.1039945E-1,-8.0284643E-1,-1.9530412E0,-1.0778686E-1,1.2977403E-1,9.546636E-1,7.104111E-2,-2.8303567E-1,3.7804747E-1,-8.6432464E-2,-4.6226478E-1,-9.797337E-1,-2.1363337E0,-1.1765268E0,2.7811474E-1,-4.3979502E-1,9.1525435E-2,1.5036225E-2],"categories":[],"categories_nodes":[],"categories_segments":[],"categories_sizes":[],"default_left":[1,1,1,1,1,0,1,1,1,0,1,1,1,0,0,1,1,1,1,0,0,1,0,0,0,0,0,0,0,0,0,0,0],"id":48,"left_children":[1,3,5,7,9,-1,11,13,15,-1,17,19,21,-1,-1,23,25,27,29,-1,-1,31,-1,-1,-1,-1,-1,-1,-1,-1,-1,-1,-1],"loss_changes":[1.9904472E1,1.7456528E1,5.1360245E0,9.405815E0,5.682686E0,0E0,2.1082942E0,8.595619E-1,6.306019E0,0E0,5.92511E0,3.8910484E-1,1.4421582E-1,0E0,0E0,5.068106E-1,5.029358E0,1.0447845E0,5.066809E-1,0E0,0E0,2.0654695E-3,0E0,0E0,0E0,0E0,0E0,0E0,0E0,0E0,0E0,0E0,0E0],"parents":[2147483647,0,0,1,1,2,2,3,3,4,4,6,6,7,7,8,8,10,10,11,11,12,12,15,15,16,16,17,17,18,18,21,21],"right_children":[2,4,6,8,10,-1,12,14,16,-1,18,20,22,-1,-1,24,26,28,30,-1,-1,32,-1,-1,-1,-1,-1,-1,-1,-1,-1,-1,-1],"split_conditions":[4.5695E3,3.6455E3,5.8575E3,3.7745E3,7.3305E3,-7.323904E-3,2.5205E3,3.9275E3,3.602E3,3.2612632E-3,6.268E3,5.1835E3,1.8255E3,-4.6011508E-3,-2.1436693E-2,2.668E3,3.8815E3,7.774E3,1.342E3,1.2977403E-3,9.546636E-3,5.5535E3,-2.8303566E-3,3.7804747E-3,-8.643246E-4,-4.6226475E-3,-9.7973365E-3,-2.1363337E-2,-1.1765268E-2,2.7811474E-3,-4.39795E-3,9.1525435E-4,1.5036225E-4],"split_indices":[19936,21822,21531,18850,15393,0,16694,15360,19876,0,15616,15497,15427,0,0,16745,16110,19296,15395,0,0,15365,0,0,0,0,0,0,0,0,0,0,0],"split_type":[0,0,0,0,0,0,0,0,0,0,0,0,0,0,0,0,0,0,0,0,0,0,0,0,0,0,0,0,0,0,0,0,0],"sum_hessian":[1.44E2,1.31E2,1.3E1,1.04E2,2.7E1,3E0,1E1,6E0,9.8E1,1E0,2.6E1,7E0,3E0,1E0,5E0,8E0,9E1,2.4E1,2E0,1E0,6E0,2E0,1E0,3E0,5E0,3.2E1,5.8E1,1.8E1,6E0,1E0,1E0,1E0,1E0],"tree_param":{"num_deleted":"0","num_feature":"30720","num_nodes":"33","size_leaf_vector":"0"}},{"base_weights":[-8.568802E-1,-9.729974E-1,2.6078224E-1,-8.025209E-1,-1.6378083E0,9.938829E-1,-2.0515636E-1,-2.2941382E0,-7.3984504E-1,-1.726501E0,3.3409977E-1,3.2335818E-1,-7.983425E-1,-8.415613E-1,-1.8451029E-1,-5.9341204E-1,-1.8484946E0,1.1757702E-1,4.8994702E-1,-1.0413724E0,8.6888425E-2,-2.287234E-1,-9.229675E-1,3.4557444E-1,-3.1356552E-1,-8.790885E-1,-2.0689359E0,1.4679533E-1,1.4961034E-2,-3.2289872E-1,-1.1732306E0],"categories":[],"categories_nodes":[],"categories_segments":[],"categories_sizes":[],"default_left":[1,1,1,1,1,0,1,0,1,1,0,1,1,1,1,0,1,1,0,1,0,0,0,0,0,0,0,0,0,0,0],"id":49,"left_children":[1,3,5,7,9,-1,11,-1,13,15,-1,17,19,21,23,-1,25,27,-1,29,-1,-1,-1,-1,-1,-1,-1,-1,-1,-1,-1],